#include "handrecognition_coefficient.hpp"
using namespace dl;

namespace handrecognition_coefficient
{
    const static __attribute__((aligned(16))) int16_t statefulpartitionedcall_sequential_conv2d_biasadd_filter_element[] = {
          1897,   9440,   -135,  -8801,  -1674,  -4478,  -3628,  -2931,   6658,   7017,  -5896,   2576,    664,  -6061,  -5863,  -6758, -10329,    249,   2717,   1420,   3567,   -322,  -8995,  -9406,   4416,  -1690,   4294, -14944,  -1029,  -2588,  -8678,  -5538,   5905,   6917,   4792, -13693,   1871,  -6290,  -3794,   4281,   3528,   1124,   8222,  -5489,  -7702,   3431,   -263,  -6076,   1349,   6346,   6371,   2021,  -4093,   6392,  -5534,  -4699, -10882,  -6811,  -5310,  -4517,   3744,   4614,  -3125,  -2904,   6209,  -4572,  -5264, -10869,   6081,  -8228, -10508,  -1874,   5415,   2803,   3646,  -2439,   2891,  -6818,  -9500,   2113,   1678,   9004,  -5087,  -1212,  -6074,   6639,    899,   5623,  -2808,   -893,   7424,   3533,   7596,    831,   7074,   8989,   -315,  -4960,    -40,   2251,  -5246,   5684,  -1099,   1353,  -2253,  -7330,   6334,   2010,   7355,  -1185,  -8408,  -6304,   4894,   -807,   5108,   1188,   7218,   3568,    850,   4759,  -9818,   5093,  -3583,   4188,  -3378,    -67,    268,   6183,   1006,   5035,  -1472,  -1521,    998,   1370,   2952,   7847,  -6985, -10221,   -370,   -613,    802,   3761,   5364,   2933,  -7095,  -7315,    685,    249,   5047,   2369,  -5026,  -6675,   6430,  -4050,   2800,  -1067,   5889,   7342,  -9005,    642, -10796,  10941,  -3947,  -7443,  -2891,  -3518, -10000,   1475,  -4642,  -4844,   7268,  -6609,    591,   5002,  -2619,   7749,  -4679, -14646,   1495,   4030,  -7994,  -5705,  -5834,   2992,  -9192,  -3525,  -7957,   3678,  -1672,   4331,   5309,   6409,   6597,  -5950,   -134,  10527,   3905,  -1265,  -1802,  -6218,  -2823,   7183,  -3431,   4693,  -8781,   2495,  -8087,  -3525,   5187,   3673,   4243,   2647,   5555,  -6030,  -4587,  -4569,  -9559,   7415,    423,  -2306,   6149,   9319,  -3680,    -22,  -4829,  -1188,   1875,   2927,  -7849,  -8692,  -4860,   3782,   3724,  -6802, -10498,   7182,  -7477,  12136,  -8574,    629,   7915,   1236,   3977,   7351,  -8041,  -9091,  -3185,   3822,  10553,  -8645,  -1619,  -8102,   1864,   5001,   -485,  -6417,    543,   3379,  -8841,  -2170,   6708,  -5422,  -5877,  -1021,   -903,  -4217,   2726,  -1869,   1595,  -5914,  -2136,  -3544,  -3939,   -130,   2135,   5450,  -7202, -10298,  -8024,     54,  10931,   3913,  -5178,   5536,  -1564,  -9028,  -3657,   1101,   -631,  -5630,  -2129,   1600,  -5217,  12243,   1367,  -8911,   -447,  -4542,  -3768,   3259,   -363,  -4530,  -9056,   5900,   -250,  -2347,  -1369,  -6506,    -23,  -7289,    913,  -6844,   2112,  -1076,     89,   4975,  -6248,  -4015,   2219,    800,    152,  -5541, -10521,   4502,  -7020,  -5983,  -2200,   6847,   7355,   -250,  -9272,  -1799,   4000,  16467,  -5563,    272,  -1970,   -701,   4546,   1467,   9637,   1488,  -7323,  -6937,   5325,   5544,  -2444,  -7141,  -1181,  10937,   7195,  -3922,  -6263,  -4294,   -849,   4670,   2752,   7282,  -8118, -10448,  -2377,  -8326,   1240,  -3518, -12381,   -421,  -5858,   2629,   4418,   2112,  -6818,  -4656,   2763,    221,  -6950,  -4209,  -8950,  -3042,  -7632,  -7893,   2582,  -6407,   3499,   4556,   2809,  -7972,    136,  -9415,   -532, -10382,  -3031,  11132, -10751,  -7126,   5651,   3207,  -5720,  -4180,  -5215,  -4648,  -2654, -11950,   1089,   9294,   4490,   6838,    544,   2424,    561,  -4808,   4179,  -8246,   1709,   7051,  -4301,   6238,   1961,  -6236,  -7424,  -6414,   7539,   2875,   8634, -10318,    -64,   5522,   3211,   -955,   6166,   3725,   6515,  -1532,   5297,   7063,     69,  -1731,  -8952,  -1340,   2461,  -1225,   2737,  -3947,   1282,   5114,   -809,   6727,   6739,   1401,   7891,  -9015,    947,  -1260,  -9688,    535,  -3304,  -1797,   4439,  -4470,  -2943,   2137,   8399,  -5837,   2521,   2374,  -1683,   4977,  -8372,  -8549,  -7306,  -2894,   7634,  -8889,  -4232,  -4936,   5390,    513,  -4289,  -2843,   9655,  -5949,  -1605,   7595,  -9048,  -4087,   1639,   3310,   -597,  -3575,   9444,  -9897,    -63,   3090,  -2449,   4327,  -9998,   5831,  -3579,  -6564,  -5543,  -1069,  -9054,   -152,  -6133, -11109,   4491,   -664,   4170,  -3777,  -6777,   8065,   2388,  -8204,
          1422,  -6463,  -8553,  -2679,  -3275,   2580,  10630,   3763,    300,   2287,  -3094,  -7611,   4573,    956,   3682,   7054,   1876,    583,    706,  -5376, -10675,   5412,  -5908,  -5288,  -4024,  -5133,   5719,  -5322,   -467,   5088,  -9579,    989,  -6429,  -7377,   4791,  -3641,  10123,  -1762,  -8682,  -1263,  -4132,  -3771,   4061,   -772,   5917,  -1871,  -3596,  -8600,  -4975,   8229,  -9046,  -5196,  -4360,    -87,  -5307,   5001,   8101,   8215,  -5430,   -472,  -3082,  -7669,  -3209,   5291,  -4497,  -8572,  -5926,  -4199,  -1256,  -7710,   3715, -10029,  -1753,  -4697,   4526,  -3684,  10223,  -1029,  -7847,  -9493,   2538,   3655,  -9103,   3883,  -2860,  -7678,    618,   -448,   -366,  -1906,  -6567,   1171,  -6804,   5043,  -4494,  -7957,   5618,  11335,  -6961,  -2341,   2348,  -8407,   6410,  -6717,   3524,  -1762,   1739,  -4194,   6422,  -3560,   5625,  -9260,   1785,   6738,  -2181,  -6297,  -7008,  -6139,  -8960,   4113,   1769,   7165,  -5631,   6379,  -7726,  -2051,  -4150,   3467,   6248,  -6915,   4694,  -6414,  -5493,  -6715,  -1569,  -3844,  -5071,  -3609,  -2738,  -3936,  -2993,   3493,   6292,  -6342,   1218,   1351,   3028,  -6902,   4375,  -5261,   3535,  -8147,   4902,  -4329,  -6801,  -4649,  -4081,    175,   -413,   3927,  -2403,   7682,  -1693,  -3870,  -1824,  -5277,  -5196,  -1241,  -2152,  -8270,   2965,  -4767,  -3075,   5367,   6146,   -461,   4152,  -6751,  -4224,  -5527,   5155,    -84,   3801,  -2955,  -6543,   -521,   5712,   1098,  -3070,  -9266,   2255,  -5964,   3749,  -5589,  -9123,  -1408,   9106,   5685,  -6880,   6171,  -5735,   6010,  14906,  -2527,   5554,  -2099,  -8374,   1142,   3296,   -554,   4823,  -1762,    283,  -7621,   4123,  -1000,   1164,  -9948,  -4389,  -1008,   5759,    713,   -910,  -2454,    410,   3140,    950,  -1632,   2977,    138,   7006,  -4566,   6186,  -8255,   3673,  -3344,   6637,  -4785,   4758,  -1447,  -5006,  -1846,  -1182,  -1419,  -6319,  -4308,   3112,  -2462,  -8047,  -5897,  -7570,  -3866,   5880,  -2760,   3335,   -715,   3505,  -4352,  -2175,  -8775,  -1427,   2470,  -6026,  -1863,   5888, -10294,  -5779,  -7844,   1905,  -7141,   3338,   -216,   2303,  -4913,  -9514,   2369,  -5315,  -1046,  -8002,  -3182,  -4589,   9409,  -8086,  -7368,   5921,  -2574,   5668,  -7361,  -7735,  -5468, -10430,  -3104,   6594,   1480,  -4854,   2761,  -3067,   6273,  -7831,   5323,   3341,  -2339,  -2838,   7563,  -6991,   3351,  -4921,    848,  -3306,   1687,    996,  -6676,  -9078,   4685,  -2227,  -7217,  -6582,  -4049,  -5102, -10102,  -8001,  -7460,   1724,    910,  -8429,    977,   -955,   1106,  -1587,  -5100,   3022,   6965,  -5145,  -1163,  -1040,    505,  -7779,  -3572,   -107,   9889,  -6030,    162,   5992,   7710,   2430,  10992,    929,  -2576,   6410,   6583,   -660,   1545,  -8988,  -5287,  -4578,   2623,  -2137,    508,  -4943,  -1627,  -7249,  -2266,  -5668,   2173,   2979,   6170,  -6867, -11147,  -7502,    397,   4143,   6655,   2821,    -51,   2045,   7259,  -8507,   4879,  -3202,  11473,   2156,   3598,   5791,  -6069,   2980,   7585,   1917,  -1108,   9057,   1266,   5270,  -8269,    513,  -2840,  -9316,   3822,  -4128,  -1792,   4118,  -2889,  -4704,   5707,  -5832,   4604,  -2761,   4136,   -698,  -2994,  -4208,  -3515,  -3236,  -5761,  -7449,  -9383,   7458,  -4854,   6183,  -3518,  -2689,   8697,   2652,  -8553,   1565,   3607,  -6166,   8798,   1960,   6251,   7189,   4487,  -1949,  -4091,   5041,  -6342,  -7964,  -6109,  -6049,  -2405,  -6287,  -3828,   4216,   7829,   1340,  -6409,   1335,   3976,   4076,  -9312,  -4999,    704,   4091,  -8900,   3084,  -8356,   2723,   2765,   6722,  -1284,   5291,   4007,   7400,  -8698,   6679,   1508,  -4709,  -1809,   9542,  -1609,   -243,     -4,   5681,  -7588,  -3860,   1905,   4245,   7331,   5115,  -1638,   1426,   1104,    742,  -6275,  -6314,  -2724,  -2571,  -2521,  -1654,  -5611,   3105,   5758,  -5100,  10172,   -482,   9274,   3616,  -7904,  -7113,   5183,   5485,   8105,  -3715,  -6172,  -4086,  -2874,  -4931,  -5990,  -2026,   5726,  -2260,  -3338,  -5481,  -4075,
         -6357,   3010,   -742,  -2332,  -9958,    786,  -4824,  -7812,    636,  -1392,  -8989,   8334, -10542, -12548,   4938,    148,    864,   4542,   1628,   8977,  -4317,  -2983,    307,  -8384,   3161,  -2471,   1021,  -3265,  -5238,   7336,  -2991,   5304,  -1078,   -700,   4102,   4260,  -3627,  -4153,   3275,   2801,  -6250,   4414,   -359,   5552,   4826,   -332,  -2479,   4064,   2275,   1613,   1871,   7294,  -7851,  -7984,  -7646,  -2178,   4345,  -6096,   9555,   2004,   8235,  -9727,   5084,  -6019,   7281,   -466,   4961,   -723, -10501,   3011,  -5440,   1955,  -4571,  -4754,  -2870,   2937,  -3291,  -5155,   5345,   4739,   5610,   1296,  -2321,   3076,  -4402,   -544,  -9268,   9116,   6829,  -8363,   5021,   5255,  -2578,  -5219,  -2837,   9154,   -835,   2489,   5054,   7159,  -4041,   2617,   7725,  -8148,   2286,   1260,  -1556,    595,   1123,   3258,  -3549,   3646,  -6471,   3015,   6522,  -5303,  -5524, -12171,  -6627,  -3946,   3659,   3215,  -4206,  -7343,  -3556,   3713,  -4345,  -4352,   3110,  -3803,  -2304,  -4578,  -4765,   7743, -11663,   5280,  -4109,   -885,   2459,    -88,  -6827,  -5759,   3409,   2322,    654,   1790,  -2274,   4268,  -6991, -10886,  -1403,   2293,  -1548,  -3534,  -3028,  -5842,  -5640,  -1734,  -6001,    993,  -5355,   -578,  -1818,  -1991,    475,  -7821,  -7018,  -5837,   1795,  -8438,   4118,  -8310,  -4307,   9596,  -5423,   6864,  -5062,   7671,     98,   4423,   7150,   7804,   5330,  -3791,   8981,   5513,  -2898,  -4194,   -289,   7707,   9734,   5402,   6323,  -3034,   1387,    -98,   1362,   6078,  -6427,   -329,  -5953,   6812,   -355,   3679,   2390,  -2179,   4110,   3407,  -9783,  -7903,   3299,    688,   6790,  -7055,  -5963,    361,  -6172,   6111,  -3570,   -398,  -2709,   7707,   5918,  -5401,   -406,    875,   6793,   2234,   7109,   1210,   7503,  -3219,  -2694,  -8103,   5379,  -1248,  -2445,   5080,   5217,   1512,  -7497,  -8765,   7827,  -9354,  -2622,  -1314,  -9314,  -8907,   5261,    477,   7205,   -742,  -5178,  -7168,  -4132,  -4871,  -9197,  -5912,   6981,   4325,   7649,   4498,   7742,   3548,   2455,   -260,   1612,  -2788,   3204,  -6333,  -2235,   6399,   4084,   4234,   6533,  -7538,   8786,  -3987,  -4062,  -5739,  -2981,  -5324,  -6728,  -8064,   6109,  -5100,  -4833,  -7295,   5658,  -2898,  -4941,  -5688,   6474,  -6166,   2842,    864,  -5041,    697,   3958,   7156,  -4986,   6700,  -3855,    417,   7858,  -6941,   2329,   2029,   2070,    390,     -4,   2822,   2453,   4713,  -1121,  -8843,   9007,  -7574,  -8655, -13398,  -1837,   -997,   8335,   1822,  -1508, -11376,  -8984,  -7702,  -1092,  -9366,   5533,   6560,   4300,  -3175,  -9651,   2091,  -5644,    378,    483,  -6142,   2726,  -4526,  -1565,  10484,   8200,   1591,  -7009,   6641,  -2179,   2706,  -2034,   4206,     46,  -7824,   4055,  -2894,   6289,  -9660,  -7991,  -6338,   7179,   -456,  -2473,    940,  -5052, -12266,  -3586,   -553,  -9406,   7447,  -3988,    845,  -7543, -12546,  -9759,  -2942,  -2898,  -4406, -11047,  -9633,  -5660,  -2644,  -6292,  -9140,   2632,   7246, -14827,  -2383,  -3846,   4669,  -2976,  -2997,  -1503,   3941,  -3180,  -7386,  -3473,  -2252,   1391, -10944,   1544,  -3747, -14643,   3986,  -6884,   6618, -16490,  -4024,  -5612,   2087, -13945,  -9514,  -4778,   5199,  -5597,   1203,  -3597,  -7012,  -1175,   4715,    558,   8402,   3799,  -7249,  -2736,   5905,  -9612,   -525,   3555,   1386,  -6047,  -8741,   6541,  -5454,  -4578,  -3953,  -9013,  -3466,  -9449,    556,   1183,  -7356, -13164,   2895,  -3385,   3674,  -9872,  -9315,   2826,  -1311, -13675,   2293,  -8749,   6724,   3349,   1460,  -2856,   7466,  -6194,   6484,   -803,   -565,   2889,  -4659,   4233,  -1691,   7779,  -9422,  -4376,  -2486,   3033,   1331,   4890,  -2637,  -5831,   8848,   5793,  -6431,  -6929,  -5659,  -6918,   8300,   2926,  -7714,  -5519,   5880,  -5259,   5464,  -3571,  11160,  -9622,   4108,   5034,  -5891,   7885,  -6863,   2125,  11013,   6531,   2881,  14554,   6804,  -4276,   7590,   -664,  -6854,   4730,   2703,  12869,  -5978,  -9691,  -1582,
          5826,  -6199,  -2315,   5829,  -1350,  -5015, -12818,   4275,   5432,  -7089,   6350,  -5452,   3923,   4117,   8309,  -7109,   4281,   3727,  -9226,    603,   -599,   6297,  -4015,   5466,  -3419,    705,   6984,   3999,   3843,  -7396,  10135,  11009,  -1959,  -6988,   8308,   3670,  -1268,   4104,   4934,   3120,   2877,  -7320,   1452,   6110,  -2978,   6424,   -789,   7912,  -3154,  -1360,  10747,    -13,  -1571,     81,  10245,   4590,   -449,  -8477,   1560,  -1041,   3936,   7546,  -4245,   5473};

    const static Filter<int16_t> statefulpartitionedcall_sequential_conv2d_biasadd_filter(statefulpartitionedcall_sequential_conv2d_biasadd_filter_element, -17, {5, 5, 1, 64}, {1, 1});
    const Filter<int16_t> *get_statefulpartitionedcall_sequential_conv2d_biasadd_filter()
    {
    	return &statefulpartitionedcall_sequential_conv2d_biasadd_filter;
    }

    const static __attribute__((aligned(16))) int16_t statefulpartitionedcall_sequential_conv2d_biasadd_bias_element[] = {
           -14,     12,     -3,      2,     25,    -35,      0,    -19,     -9,     12,      2,     11,      8,      4,     -3,      4,    -22,     -9,      0,      3,     -1,    -58,     91,      1,    -54,     14,      8,     -1,    -15,     -1,    -21,     -5,     -3,    -42,    -21,    -50,    -38,     -4,    -34,      4,    -33,     -2,    -28,    -31,     -1,      6,      2,     -9,     -1,     14,    -13,     -3,    -16,     16,     20,    -16,     12,     -4,    -30,    -28,      3,    -44,      1,      7};

    const static Bias<int16_t> statefulpartitionedcall_sequential_conv2d_biasadd_bias(statefulpartitionedcall_sequential_conv2d_biasadd_bias_element, -7, {64,});
    const Bias<int16_t> *get_statefulpartitionedcall_sequential_conv2d_biasadd_bias()
    {
    	return &statefulpartitionedcall_sequential_conv2d_biasadd_bias;
    }

    const static Activation<int16_t> statefulpartitionedcall_sequential_conv2d_biasadd_activation(ReLU);
    const Activation<int16_t> *get_statefulpartitionedcall_sequential_conv2d_biasadd_activation()
    {
    	return &statefulpartitionedcall_sequential_conv2d_biasadd_activation;
    }

    const static __attribute__((aligned(16))) int16_t statefulpartitionedcall_sequential_conv2d_1_biasadd_filter_element[] = {
         -8280,   1597,  -3050,   1788,  -3879,   4139,  -9011,  -5742,  -4290,   3693,   6061,  -3292,   7452,   4333,  11797,  -2261,  -2831,   2323,   3232,  -5795, -11718,  -9445,   4554,  11029,  -4230,    494,   2509,  13882,  -5306,   1334,  -2044,   8932,  -4496,   2545,   8802,   9047, -10993,  -2341,   3834,   7460,    181,  -2958,  -8375,   1377,   1267,   3335,   4849,   4676,  10289,  -7636,  -5537,   5659,  -6748,  11379,   6961,   7427,   -295, -11329,   3977,  11661,   5509,  -2836,  -4109,  -4048,  -8153,  -8872,   6149,  10628, -12927,   -888,  13551,  -8841,   8406,  12545,  -9756,   7544,  -2330,   1183,  11178,   6943,  -3795,  -8732,   1077,  -9280,    418,   2639,   8487,   8819,  -7406,  -1697,  -2166,   6276,   6170,  -6546,   6826,  -3296,  -3630, -10056,    945,   -832,    931,  -1325,  -7850,  14170,  -4107,    556,   6285,  -1471,  -9258,  23848,  -5313,  12141,  -9525,  -8749,   -372,   3506,   3871,  -2045,  -6514, -10882,  -1614, -12731,  -8621,  -9195,   6384,   4024,   4116,   4677, -11190,   6661, -10206,  11209,   7325, -10717,   5958,   5250,  -7368,  -5042, -11214,  10891,  -9965,  -6039,  -4108,    995,     90,  11022,   9231,   4320,  -5868,  -9751,   4242,   7741,  -9129,   3680,    702,  -9678,  -8022,  -1489,  16331,  -6277,  -4088,  -6961,   1923,   2573, -11579,  -9322,   3424,   3239,  -3648,  -5772,   3878,   -257,   5403, -10308,  -4522,  -6265,   -390,  -2195,   6752, -16604,   3654, -10993,  -7056,  -8829,   9815,  -4931,  -8809,   4769,  -3528,   1571,   4728,  -4707,  -9452,   6687,  -9570,   4437,  -4040,   2519,   3346,    454, -13687, -10328, -11411, -15831,   4481,  -4698,   4489, -12188,   9421,  -5908,  -5514,  -2665, -12041,    243,  -4518,  -5376,  -9797,   1792,  -2050,   2500,  -4886,   4759,  -8968,  -2972,  -2459,  -8384,  -4435,  -6558,  -6312, -13937, -10317,   5294,  -2082,  -7690,   6284,   3835,   5242,  10808,   9906,  10110,   5916,   3109,  -3092,  -8933,   -762,  -9512,   5507,   1213,  -9844,   5598,   1223, -10695,  -5289,  -7424,   5941,   2763,   -420,   6477,   2938,   2926,  -3201,   4542,  -7239,   -256,  -9129, -13850,   7241,  -4174,  -5911,  -4683,   -739,   6850, -11299,  -6067, -11392,  -3079,  -9774,    775,  -6357,  -1664,   1586, -13543, -12324,    244,   -856,   5378,   5985,  12901,  -9159,  -4152,  -3066,    901,    531,   -412,    315,  10962, -11280,  -2891,   1883,   9530,  -8926,   4855,   4489,  -6823,  -8257,   4732,  -3428,  -8552,  -8751,  -6292,   2253,   -277,   9578,    602,  -7327,  -4314,  -1023,  11074,  16559,    664,   4056,   7083,  -7945,    515,  -2373, -12111,  -6127,  -8420,   3207,  -9466,   3418,  -4560,   6664,  -5754,   2586,   6712,   -879,   -353,   8777,   3252,   3334,   7517,   5603,  -7967, -10859,    190,   1551, -11222,  -7791,   7711,   5727,   9310,   5968, -11361,  -9871,  15778,  -2378,    349,  -9892,  -4115,  -4242,  -4868,    857,    411,   9050,  -4842,  -4435,   1882,   3544,   2516,  -8652,   5808,  -1072,  -6297,  -8110,   6020,  -4724, -13328,  -6650,   5425,  -9857, -10453,  -5593,  -5239,  -2267, -11621,  -2960,  10667,   -572,  -1845,   -670,    893,  -3388,   1574,   2962, -12667,   4408,  -6934,  12027,   8983,  -4379,  -4420,  -1652,   5768,  -9893,     37,  -2743,  -7955,   -158,   1005,   -741,    425,  -9648,   1901,  -6890,  -7637, -12012,   4894,  -4226,  -8236,  -1983,  -2882,   7048,   1075,  -3871, -10067,  -7078, -16656,   5012,    151,   4613,   2332,  -8304,   6050,   -930,   4306, -10555,  17472,  15632, -12356,  -4696,   6557,   7389,  -3762,  -2838,   3082,   2866,   3890,   1968,   5554,  -9081,   4738,   7613,   3260,  -8722,   2919,  -4902,  -4985,   9814,   -502,  -5545, -11254,  20725,  -9200,  -1496,   1803,   7046,  -1433,  -8335,   7016, -10325,  -9754,   7889,   4274,  -4598,  -5005,   9167, -11475,  -1570,   7184,  -1920,  -4781, -12858,   7162,   3316, -17870,   4228,   3610, -13131,  -7739,   5554,   9809,  -4415,  -7333,   -770,   2409,  -7111,   1668,   9031,   6885, -11724,   -985,  -7605, -13236,   2638,  -1506,   2693,   4305,  -1847,  -9138,   -241,   4411,
          3840,   8435,  -6249,  -2831,   -683,  -4895,  -2735,  -8449,  -4529,  -8707,   -561,    106,   6528,  -6086, -10975,  -4742,   2946,   2032,  -8229,   7405,  -1378,    778,   4627,   2504,   8124, -10825,   -840,  -4177, -11036,  -4209,  -5200, -13733,   1628,  -2398,  -9221, -11015,   9343,  -9282,  -6429,    778, -11102,  -1335,  -8678,   8218,   2170,  -1690,   5808,   1823,   9920,   5103,   6990,   2015,   9440, -12197,   2478,  -4733, -10777,   4842, -11625,  -6467,  -8477,   3180,   7901,   7846,   9231, -10366,   2570,    769,  -2627,  -1851,  -6558,  -7070,  10373,   7264,  -1413,  -4324,   2721,   4465,   1932,  -8570,  -8661,   -438,   2193,   6265,  -2024,  -3497,  -1894,   2976,   3435,   6068,  -7821,  -9450,   9791,   9438,  -6280,   3955,  10658,  -1597,   6092, -13256,   1024,    510,   6919,   6646,   9201,   6257,   -739,    929,  -2729,   7188, -13020, -14194,   -497,   4656,  -4374,   2501,  -1453, -13527,    508,   9874,  -6381,   1523,   1153,  -1879,   -256,   1341, -11539,   5466, -12864,   6485,   9395,  -4572,  -1780,   5174,   -123,   3877,   7040, -12913,   6138,   7471,  -9815,    903,  -5345,  -3991,   4835,     51,   7139,  -6878,  -1460,  -2860,   7146,   4886,   3127,  -5793,  -3532,   4076,   5511,  -3204,   1175,     29, -10750,  -6846,   4908,    556,  -7797,   7240,  -2613,   5893,  -2283,    -33,  -5823,   1179,   -117,   9867,  -4820,    368,   5145, -11812, -11246, -12211, -11173,     16,   6645,  -9872,  -2824,   7971,   6632, -14929,   6079,   5198,   2406,   6780,   8094,  -5903,   9405,   6566,  -8369,   1081,  -9335,  -7379,  -5628,  -5872,   2709,   -461,  -8080,  14700,  -3380,  -7881,  -9783,  -1513,   4266,  -1799,   5063,   2469,   8171, -10337,  -3716,   3644,   -363,   3858,   3930,   7059,  -4404,  -8932,  -6205,   7381, -12596,   1378, -11833,  -2926,   4042,   -713,   7458,  11977,  -2031,   5190,   2132,  -7326,  -4745, -10307,  -1795,   8988,  -9916,   1934,  -3346,  -5001,  -3370,   7284,   7335,    719,  -1720,   2627,  -5529,   1593,   7807,   4038,  -6469,  -5369, -10244,  -5648,   4358,   -158,  -5708,   2903,  -8604,   3167, -11720,  -3922,  -9520,   6815,  -3724,  -9989,  -2079, -11479,  11671, -11602,    249,   2778,  -3483,   6230, -10620,   3314,   4605,   4749,   4467,   5352,  -6943,  -7918,  -3478,   7415,  -3171,   8917,  -2527,  -6501,  -9419,   1183,   1195,  -4382,  -7694,  -5069,  -1140,   8733,   9614,    231, -10175,  -5078,   1390,   6924,  -7783,  -4098,    855,   6906, -10755,  -8043,   2432, -10321,  -9236,  -2463, -13926,  -9402,   2702,  -4450,   3088,  -3378,   7835,   2872,  -6591,   9642,  -5100,  -5860,  10034,   3393,    655, -12415,  -9361,  -7806,    684,   -531,  -6828,  11351,  -6295,   3340,  -2136,  11913,   1726,   6472,   1413,    504, -11882,   6626, -11794,   9359,  -6713,    618,   -171,  -3638,  12922,  -5412,  10545,   5516,  13608,   6600,   7540,  -4830,  -9537,  -6921,  13166,  -9182,    353, -15495,   9700,   7509,   6212,  -1954,  -1366,  -7315,  -4804,   2645,   1663,   4772,   3004,  -6111,  -4262,  -7447,  -8981,   2120,  -9001,    884,   5821,     40,   8903,  -6511,   3142,  12375,   7369,   8077,   9470,  -5447,  -6166,   5112,   2025,   -987,  -9873,   6600,   -701,   6820,   2137,  -9606,  -1821,  -9630,   3147,   5436,  -3169,   2246, -10714,    536,   2378,   1185,  -6522,   1884,   5962,   1038,   2938,   8012, -10282,   9077,  -7399,  -7040,    173,  -9752, -13689, -11752,  11407,  -2660,   1796,  -5935,  -6356,  -5562,  -8450,   3248,  -9487,   8278,  -6467,    865,  -8726,  -3364,   5832,   7515,   -234,  10895,  -1628,    934,   4996,  -9791,    283,   4856,  -6263,  -9996,   5465,  -6097,   8442,   6450,  -9409,  -7607,   9489,  -4499,   4623, -13162,    351,  11016, -13462,  -8560,   5545,   9250,   2150,   9213,  -3285,   3788,   9163,  -2370,   2314,   4324,   5429,   3737,  -2312,  -5613, -12275,   3638,    718, -11474,  -5402,    543, -11763,   5436, -10265,  -4803,  -8360,  -6700,   2297,   8516,   4342,   3716,   5624,   4375,  -8716, -11592,  -4728,    380,  -4369,    269,   3300,  16680,
         -2521,  -6738,  -4671,   8625,   1454,   6401,  -1734,  -6797,  10289,   9183,   2764,  -2508,  -9315,   -163,   5758,  -8930,   -759, -14156,  -7670,  -8594,   2387,  -6779,  -8972,  -7193,   7863,   9648,   2331,   4401,  -5946,    983,  -5618, -15317,    604,  -5992,  -1061,  -2166,  -4509,   5062,     13,   3970,  -3943,   6692,   4053,   2782,   5495,   1475,   2780,  -6205,  -4299,   4045,  -6864,  -3576,   9141,  -4252,  11340,  -6357,   1778,   8870,   3587,   9515,   6900,     -6,  -9114,  -7366,   -235, -11694,   2098,  -6089,   5956, -12252, -12704,   5017,   6657,   4203,   7015,   7009,  -1044,   2756,   7749,   2857,   2295,  14997,  -1972,   3876,  -9390,  -5179,   2174,  -5286,  -2843,   8249,  -2872, -12366,   1452,  -3576,  -4264, -10051,   3179,  -7833,   8010,  -6238, -10432,  -1097,   -170,  -2896,   8993,  -9317,   8266,  11645,   6963,    261, -14861,  14299,   5066,   5288, -10277,  -3950,  -5496,   3216,  -3319,  -2335,  -5346, -11201,  10279,   8778,   6511,  -2376,   5954,   3111, -10175,   9118,   6141, -10034,    595,  -4077,   5357,  -1278,  -6528,  -1452,  11478,  -1652,   8207,  -7260,  -6874,  -3571,   4707,  -8249,  -8738,    152,  -6554,  -8135,    705,   1417,  -3949,  -1217,  -1692,   9967,   2184,   -104,  -3910,  -3455,  -7706,   6086,   9208,   2196,  -4578,   1647,   4456,   2072,   2895,   4003,  -3573,  -7885,   4850,  -8393,   1836,  -2951,   3684, -22833,    117, -14986,  -2002,   9122,   7340,   6535,  -5893, -10397,   2553,  -6843,   5078,   1843,   3839, -12751,   7316,  -9583,   9459,  10470,  -8938,  -2576,  -9164,   7939,   2178, -12398,  -9141,   4171, -10751,   9292,  -5943,  -7281, -11007,   -198,  -2022,   5183,  -4444, -12643,  -2115,  -6367,  -5486,   -573,  -2651,    267,    798, -11250,  -9439,  -3719, -14858,  -7654,  -9734,   7560,  -8197,   8321,  -4960,   4391,   -968,   2768,   1007,   2554,   8786,   2965,   -324, -11761,   2087,   -776,   9838,   -606,   1178,   8712,   7858,   7132,   1163,  -5889,   5289,   4596,   1775,   7984,  -1592,   3449,    256,  -7906,    829,  -4917,  -9164,   -182, -10999,  -8444, -12369, -14838,  -3192,   1363,  -7547,   3651,  -5485,   4131,   8445,  -3225,  -6453,    -27,  -1707,   -481,   4318,    668,  -8331, -15689,  -6404, -11371,   9462, -11459,   2928,    395,   7616,  -9295,   9460,  -5753,  -1799,  -1634,   4457,  -7321, -12041,  -2637,   6864,  -5100,    189,   7763,   2031,  10241,   8968,   8797,   3019,    618, -11128,  -3758,  -5147,  -3278,    408, -11927,    581,   -956,  -4424,  -6630,  -4344,  -4702,  -9128,  -4744,   1389,   8073,  -5723,   3016,  -8819,   1610,  -6956,   2521,  -6560,  -9821,   5372,  -6823, -11108,  -3998, -10474, -10956,  -4393,   1202,  -3330,   9743,   3929,  -6823,  -1111, -13431,  -7645,  -9312,   7033,   8956,  -6407,   4122, -10521,   3691,  -6625,   1651,   2823,   2054,  -2062,  -8473,  10911,   -614, -11138,   9014,  -4693,   4430,   6345,  -1682,   7487,   1688,   6734, -14423,  -9280,  -3238,     70,  -4532,  -1488, -13297,  -8215,      1,    850,  -4992,  -7072,  -9232,   3796,  11336,   4013,  -9798,   -573,   8317, -12086,  -8610,  -8073,  14074,   3822,  -7077,    466,   6023,   3766,  -8909,  -4879, -11126,   6859,  -4346,  -4219,   -943,   6395,    387,    955,   3190,  -9536,   -512,  -6061,   8104,   -483,   1558,   5091, -13392, -10344, -10828,  -4772,  -6899, -11045,   -885, -10357, -10673,  -7619,  10696,   1814,  -8471,  -6701,  -4410,  -5972,    321,   1387,   3137,   -851, -11986,   4795,    713,   -323,   7170,  -7544,  -4151,  -8251,  -3369,   7665, -16344,   5728,  -2704,   8077,  -8683,  -2470,   -445,   8225,  -8571,   7043,  -7575,   9502,   4600,   3172,  -5641,   5254,  -2058,  -1566, -10099,   8857,  -5386,    497,   7716,   1359, -26780,  -9832,   5430,   2231,  -6910,  -9496,   6858,   9769,  -4798,   1813,  -9026,    208,   1062,   -666,   8211, -15190,  -4888,   7967,  -5514,  -6876,   4050,   2518,  12430,   8544, -12948,  10651,    904,   5726,   4006,   4058, -11262,   6388,  -1923,    867,   9868,  -4406,   9437, -11779,  -6714,  -1579,   -236,
        -10424,  10208,   2678,   1665,   4911,  -8952,   4056, -10606,   3661,    407,  -8363,  -5946,   3613,  -7171,  -1804,  -4933,  -4078,   7287,  -8550,  -4501,  -1944, -11369,   4391,   8419, -15137,   7498,   7087,   3084,   5861, -10661,  -5870,   2073,   6642,   1526,   8838,  -7498,   9312,  -1030,   6681,  -1031,  -5050, -10811,   -315,  -6798,  -2499,  -9225,   -548,   -226,    428,   5852,  -5383,  -1570,  -6904,  -4644,   6097,   6171,   1172,  -4663,   2719,   3857,   8307,   4297,  -9994,   3004,   2447,  11447,   2391,  -1527,  -6831,   -258,  11149, -12246,   1351,  -1429,  -2812,   5009,  -5644,   1056,  10263,  -4965,  -2742,   5034,   1264,   3992,   5504,   6118,  10007,   3130,   -302, -10325,   7207,  -3219,   1719,  -7096,   7904,  -7471,   5004,   3213,  -1489,   -791,   6902,  -1315,    917,  -5318,   1727,   8776,  -3602,  10388,  -8644, -11363,  10290,  16460,  -7673,   1058,    733,  -5796,  -8180,   3248,   6041,   4757,  -8878,   -787,  -8059,   -370,  -2551, -11753,   -842, -13936,  -7786,   7580,  -8520,  -5272,   3837,   4847,  -5680,    489,   2047,   9341,  -9094,   5740,  -1453, -11605,   1601,   2384,  -7331,  -1067,   8665,  -4804,   3375,   -858,   4204,   8553,   2515,   9491,  -7451,   1297,  -4434,   4907,  19345,  -4072,  -7485,   6552,  -2414,   8822,   8301,   2727,   9512, -11982,   2180,   2215,   7966,   5943,  -7435,  -6904,   9278,   7726,  -7586,  -4610,  -3196,  -8327,    -21,  -1351,  11523,  -4278,  -9714,  -7143,  -5201,  -3905,  -5836,  -2988,   6206,  -2889,  -4209,    393,   2202,  -5575,   1697,  -7733,  -9882,  -1735,  -4466,  -9108,   3963,  -3270,  -2670,  -2865,   1231,  -5439,   7472,   5599,  -7067,    821, -10904,  15267,   8405,  -1160,   7881,    -17,  -8103,  11947,   9958,  -5354,   3155,   3320,   6264,   7239,   3432,  -4163,   2983,  -9099,  -2271,    699,   1247,   -387,   6224,   4676,   -308,  12805,  -7265,   5131,  -6673,    374,   -255,   6762,   9388,  -7896,  -1942,   4058,  -6626,   -563,   2634,  -2851,  -8264,   3822,    674,  -9184,  -2418,   -554,  -4396,   2409,  -5059,   5770,  -9804,   1672, -10020, -10953,  -3515,   6203,  -6560,   1938,  -7372,  -6085,  -6212,  11959, -10386,   7983,   -376,  -1441,  -3991,   3070,   7550,   5665,  -2961,    944,  -4665,  -7798,  -1409,  -6135,   5164,  -1343,  -3971,    364,  -7075,  -1220,  -7052,  -2649,     52,  -7069, -11209,  -1977,   6994,  -9482,  -4525,   2049,  -5624,  10236,   6180,  -5209, -10153,   1257, -10356,   2565,  -1910,   6616,  -6053,  -9974,   3987,  -8488,  -1901, -11455,   5957,   4207,    677,  -5141,  -4455,   3084,   9559,  -1757,   6497,   3794,  -6017,   8855,   8685,  -2631,  12025, -11796,   6410,   2546,   7046,   -870,    865,   1875,  -7604,   -773,  -4206,   1281,   -868,  10320,  -8697, -10825,  11652,  -2705,   9572,   -835,  -9115,  -3992,  -3717,  14928,  12295,  15044, -10526,    581,  10392,  -6224,  -1583,   3214,  18708,   2821,  10372,   1889,    273,   7771,   5090,  -8649,   7701,   6878, -12919,  -4387,  -6567,  10643,  -8421,   6358,  -1119,   5280,   6326,  -7604, -10362,   6159,    195, -11493,  -4756,    440,  -4803,   7774,   1876,  -1951,   -303,  -6717,   3672,  -4085,   5009,  -8206,  -1116,  -9521, -10749,  -8579,  -1722,   8512,   5656,  -6546,   7144,   5524,  -7392,  -1150,    873, -10784, -10963,   -331, -11920,  -3565,    112,   2229,  -5412,  -3393,  -8877,   3556,  -7068,  -8058,   8351,  -6131,  16940, -13554,  -8417,   1203, -11892,  -1085,   -888,  -6313,  16170,   -526,  -3515,   1259,  10183,    937,  -4964,  -9381,   2745,  -4957,  -8816, -10324,   4386,  -5884,   8839,  -4075,    570,   3832,  -4619,  -6680, -12403,  -5115,   9376,  -6232,   1856,   -376,  -2129,   4669, -15603,  -1290, -10637,   7436,  -7673,   6981,  -9821,   4714,  -3555,  10633,  -2224, -11921,  -4863,   7673,  -8135,  -4899,   2647,  -9494,   6495,   3780,   1642,   2619,  -2220,   2311,    765,   4183,  -5864,  -7061,   3948,   8405,   1461,   7473,  -1309,  -5297,   5993,  -6889,   5019,  -9063,  -8907,  -2495,  -1773,   9547,  -8292,  -6617,  -8330,   3391,
         -8082, -10114,   9882,  -2666,   5452,   6851,  -2946,  -7362,  -5530,  -5961,   5315,  -8503, -10006,  -6809,  -6559, -11096,  -9934,  -3652,   5645,  11479,   8983,   9484,  -2065,   9597,  -3399,  11427,   3923,   4060,  -9352,   1261,   3872, -15507,   6062,  -7181,   5233,  -2358, -10232,   -982,   6083,  -6684,   9646,   2327,   5183,   6225,   5070,  -1241,  -1353,  -6270,   3581,  -3093, -10565,   4074,  -6710,   6756,   -115,   2212, -12049,  -7752,   2734,  11272,   6927,  -9583,   8958,  -4503,   1925,  -4060,  -6094,  -2243,   6810,    889, -20766,   6675,  -9479,   3042,  -9190, -12908,  -8865,    565, -15677,  -1401,   8671,  -3315,   9722,   6031,   9147,  11865,  -8496,  -6748, -11934,   9750,   1229,  -9930,   2959,   8511,   6474,   9568,  -6390, -10176,   2864,  -5163,  11372,    520,  -2146,   8994,   6914,  -6950,   1681,   -962,   3014,  11559,   1374,  -4193,   9469, -15616,  -4256,   4315,   1935,   7139,  -1163,  -9378,  -3620, -16876,  -7299,    387,   4077,   1198,   8920,  -8859,   4345,   -345,  -3853,   2687,  -8621, -12678,   4216,  10540,  -7540,    778,  -1539,   2292,  -8962,  -2252,  -2758,   4424,  -5825,  -7035,  -6368,  -5287, -10632,  -3776,  -8726,   4659,   2294,   9130,   6356,  -8139,  -4552,  -6694,  -2143,    907,   1961,   2814,  -9928,  -3125,  -3263, -10025,   4679, -11386, -10253,  -8553,  -1579,  -6024,  -6699,  -5010,   2244,   6853,   4007, -20385,  -7276,  -9637,  -1050, -12216,  -1362,  -1350,  10030,  -1764,   3110, -10216,   1347,  -4146,   4238,   2808,  -2521,   9748,   4299,  10485,  -1196,  -2514,   4481,   6990,  -2709,  -6083,  -5720,  -2855,   8724,  11570,  -8771,  -3009,   7365,  -7508,   6644,   5391,   3211, -15853,  -3075,  -2914,   2486,   4129,   3733,  10242,  -6912,   1935,  -4002,  -4710,  -1752,  -3941, -11309,  -3689,  -8781,  -1829,  -1598,   -154,  -7648,  -6254,  -7313,   4344,  -2140,  -8118,   8760,  -1034,  -3953,   3765,    760,  -1831,   9604, -11492,   9836,  11113,   7934,  -8311,  -4121,   1992, -11532,  -8739,  -4409,  -3109,   2608,  -8994,   7275,  10490,  -4491,  12077,  -6642,  -5028,   2018,  -3610,   4426,   -694,    502, -10927,  -7530,  -2309,  -9206,   2637, -10411,  -4261,   6861,  -3226,   8324,   5558,  -5904, -10748,  -8994,  -6078,  -1340,  -8498,  -6245,   8319,   1690,    126,  -4302,   4125,   9178,   6076,   3440,   1455,  -9285,   2015,   7798,  -4133,    898,   9568,   3250, -15732,  -6948,   9789,  -3800,  -9298,   8777,  -1722,   2664,   6318,   5547,    689,  -9144,   4167,  -5313,  -5236,  -1480,  -2530, -10232,   5185,  -3334,   9554,  -5022,   6866,   3311,  -1286,    955,  -3154,  -3459,   6720,   2715,  -4418,   2791,  -1915, -10022,  -7952,   2068,   7426, -11746,  -1779,   1873,   6059,   2079, -11123,  -4135,  -7542,   -838,   4069,   7961,  -2664,  10835,   4192,  -8527,   3073,  -9996,  -6313,  14053,  -6560,   2066,   1185,   2353,   5138,   3160,  12823, -13494,  -7179,  -7317,   6783,  -4691,   6434,   7298,  -5447,  -3858,  -8635,   3276,  -7113,   1380,  -2149,   3820,  -7278,  -3876,  -3381,  10837,  -2294,   2397,  -8620,  11259,  -7348,   4781,   6604,   -727,   4404,  -2274,  -9135,    506,  -2387,  -3712,   4388,   7419,  -9162,  -4139,   6189,    683,  -7912,  -6449,   8085, -11251,  -8004,  -6932,  -6350, -11002,  -3736,   4772,   2594,  -9889,  -3167,   7238,   9853,   8213,  -5884,   2019,  -2730,  -3099,  -9745,   1596, -14625,  -1707,   6249, -14006,  -1155,   6599, -12166,   5018,  -4136,  -4576,  -6847, -17667,     61,  -2706, -15623,   3630,   1151,   7930,    419, -11166,  -9917,  -7901,  -4682, -10273,  -3609,  -9076,   3677,  -2070,   -184,  -5137,  -7990,  -7691,   3999,   5558,   3459,  10093,   8819,  -6611,  -3210,  -8987,    574,  -7646,  -3926,   2880,   1358,   3854,  -4963,  -2655,   3169,  -2967,   6468,   1160,  -1506,   3800,   7860,   6446,   3384,  16187,   -837, -11163,   2532,  -3318,  -1135,   9339,   4752,   5612,  -7947, -11429, -11028,    532,   1255,  -2092,   6671,  -5831,  -1810,     38,  -4062,   1534,   3084,   5596,   5996,    -78,  -1887,  -5838,  -6966,
          8009,  -5478,   1329,   1281, -10603,   -609,   6263,  -7348,  -2442, -11865,   9810,   4442,  -8832,   2461,   8513,   6653,  -7430,  10739,  10073,   5425, -11291,   1848, -10712,    314,   8046,    247,  -1199,  -8220,  -6534,   8214,  -8044,  -5488,   -206,    -28, -10719,  -5554, -11104,   3188,  -3547,   5933,   4178,  -7823,   4540,   3611,   4393,   3021,   1039,   5339,   -667,  -5593,   1118,  -6130,   3332,   6991,  -2379,   8418,  -3361,   2767,  -7488,   1045,  -7012,  -7475,   6447,  -1683, -10451,   2570,  11553,   -846,  -7057,  -3314,   5721, -12173,    931,  -6383,   1385,  -7292,   9301,  -8296,  -2897,   1277,   2178,  -7987,   -267,   5222,  -4179,   9658,   -392,  -8498,  -4760, -10932,   4470,    387,  -9437,   6770,  -2879,   4141, -11939,   -554,    350,   3161, -11866, -10505,  -5802,    601,  -5807,  -4429,  -2953,  -6167,   7579,   2537,  -3791,  -1586,  -1854,  -7763,    304,  -1423,   3734,  -6257,   6372,  -8828,   2842,   2088, -11349,  -5004,   1449,  -8391,   3140, -10643,   4523,  -8899,   1931,  -4232,  -3488,  -1272,  -3012,  -3129,   8872, -12183,   4281,   2328,    415,   7186,   2595,   9900,  -3903,   8099,  -3199,  10232,  -7454,   9117,   6138,   6103,   4122,  -6825,  -4528, -10693,  -9620,  -1613,  -8898,  -2893,   9965,  13309,   1480,  -6826,   6363,   5844,  -7441,  -3314,   -571, -10595,   9446,   9497,   9310,   3866, -10299,  -6703,   9110, -11579,   3483, -14451,   6280,  12909,  -7498, -11895,  10154,  -6954,  -4355,   6714,  -2704,   6653,   4479,   3747,  -7507,  -1242,   9181,  -8729,   9037,   2191,   2609,  -7795,    583, -13833,   2728,  -9413,  -3274,  14255, -15659,  -7668,   3102,   5878,  -5545,  -2139,   6294,   3308,   -762,   3383,  -1840,  10472,  -1462,  -5275,  -1068,   7936,   3120,   2457,  -7474,  16385,  -2477,   7099,  -2043,   5156,  -1094,   8055,  10896,  10859,  -7971,  -7286,   3341,     71,   4173,   3994,   2702,   6764,   5271,  -1116,   4925,  -4153,  -1524,  -5327,  -7478,   2780,   2504,   6092,  -2129,  -6846,  -9703,   6233,   7424,  -3745,  -8263,  -4270,   4034,    640,   2431,   3553,  -4115,  -9545,   6272,  -5762,  -9400,   9058,    230,  -5363,   1864,  -2152,   3433,   7893,  -7241,   8194,  -6831,  -6460,   7459,  -4785,   7147,   3173,  -3452,   6158,  -4209, -10621,  -3091,  12636,  -9257,   8403,  -5534,   5345,    892,  -7117, -10138, -10236,   1360,   5037,  -9851,   8632,   3337,  -3750, -12173,  -6974,   8012,   -679,   8781,  -5481,  -1455,  -3297,   1266,  -3475,    523,   1820,   2120,   3138,   6651,   6092,  -6544,   3816,  -6397,  -2350, -10151,   1312,  -1445,  -2286,  -9354,  -2545,  -4654,   2563,  -7138,   5006,  -1075,  -1884,  -2951,  -5444, -11130,   1431,   2057,  -8269,   4923,   1325,  -5994, -13345, -11472,   3309, -10940,  -5909,  -8083,   -560,  -6277,  -5531,   8525,   3245,   9652,  -3743,   -750,  -3245,  -3625,  15768,   6485, -11428,  -2662,  11110,   8147, -16223,  -5615,   5348,  -6850,   -873,  -1774,  -6941,  -6951,   -403,  -1922,  -2850,   5457,   2688,   -799,  13380,  -5236,   2121,  -9083,  16310,  11802,   7702,  -8688,  -1838,  10300,  -1691,   9890,   2016,  -7231,    329,  -1060,  -8881,   9524, -11909, -10224,   4724,  -5780,   9297,   9445,  -9234,  -5671,   2874,  -3766,  -8604,   4896,   1037,   4064,   7773,    749,  -5850,   -444,   1683, -10214,   4606, -11640,   2903,  -9274,  -7969,   3772, -10683,   -947,  11730,   -776,   -588,  -5993,   4819,   1884,  -6973,  -3974,   1157, -11372,   2081,  -3222,   -961,  -9642, -11889,  12045,   1471,   1629, -11666,   2140,   9202,  -7299,  -2786,   5107,   4280,   7554,  -5369,   3972,  -5756,  -4778, -13501, -10327,   2541,  -1215, -10144,  -4555,  -3204,  -5413,  11753,  -4099, -12776,   1693,    881,  -7020,   6424,  -5202,  -2983,  -3604,  -1728,  -5010,  -2907, -10288,  -6557,  -4999,   8722,   2491,   4530,  15171,   1658, -18645,   7015,   9545,   6614,  -6536,  -1330,   9054,   8202,   -781,   4771,  -5828,   9806,   2642,  -9635,   6081,   1881,  -5603,  -9175, -10069,  14429,   4055,  -3390,    608,   2142,  -9857,  -5093,
        -10524,  -5544,   2010,  -1934,    -77,  -2549, -11705,  -3482,   8359, -11462,  -2767, -10878,   5453, -10985,   2485,    909,  -5873,  -8688,  -3765,  -3590,  -3284,   4804,  -9030,   3360,  -2187,   9114,  -8686,    886,   -824,   7796, -15694,  -7859, -10186,     93,   3750,   7851,   6207,  -9550,  -9394,    744, -12260,  -8722,   2260,   2404,  -9929,   1674,   7794,   3590,  -6349, -12931,   1512,    951,   5452,  -5760,  -6054, -11519,  -6699,  -5573,   8027,   7559,   2472,   3611,   3949,  -4886,  -5805, -13695,   1379,  -6134,   5666, -14974,  -2467, -10595,   7221,     23,   7618,   9193,   4654,   8126,   6179,  -7312,  -3329,   9116,   9849,    965,  -5505,  -3437,  -9058, -15286, -10179,  -9073,  -6070,   3968,    421,  -3390,  -3277,  10663,   6685,   5502,   6647,   2515,   8156, -10310,  -5508,  -5428,   4306,  -9105,  -2871,   9257,  -9225,  12574,  -3352,  -8794,  -2759,  15086,  -5752,  -6570,   5400,  -6419,   7774, -10828,   5905,   4824,   6290,   4053,  -1323,  11501,    852,  -3929, -12660,   9848, -11543,  -1231,  -1135,    -16, -12304,  -6637,  -6501,  16160,   3806,  10077,  -5403,   -338,   5198, -11967, -10622,  -3708,   7558,  -7033,  -4048,   7374,  -7270,  -9616,   1548,   6352,  -1430,     94,  -5861,   8755,   -647,  -4363,   9489,  -3035,  -8252,   6999,  -4262,  -9112,    604, -11256,   1444,  -5243,  -6603,   9710,   8934, -12106,   5047,  10528, -10840,   2452,  -9081,   8066,   6956, -10813,   -561,  13017,  -1607,  -9295,  -1459,  -7694,   7576,   9353,   6841,  -2005,    874,   7552,  -6323,   4610,  -2495,  -2771,  -2514,   1761,   2762,  11210,   2669,    -78, -10752,  -5689, -13416,  -7082,  -4251,   3593,  -2039,  -3022,  10183,  -6484,  -4272,    950,   -975,  10454,   2512,  -6283,   3997,  -1040,  -1979,   -630,   5583,  -4170,  -5360,  12153,   7537,    967,  -9301,   3018,  -6467,   8087,   6940,   6372,  -9120,  -7509,    271,   3535,  -7155,  -4470,  -2361,   4014,   1008,  -4567,  -2086,   6889,   8883,   8533,  -4648, -12607,   -876,   -917,  -3889,  -9939,  -1966,  -1956, -11259,  -3045,    506,  -7528,   6843,   5850, -10901,  -9271,  -6727,    248,   1895,     64,  -4043,   5460,   4612,   1527,  -2533,   5759,  -4911,   5112,  -1485,   5348,   3310,   1082, -12123,  12750,   8226,  -1960, -10844,     52,  -2794,   -801,   2869,  -4304,  -5131,  11002,  -5331,  -5221,   8460,   2489,   7614,   9923,   -899,  -2526,  -7339,  -6530,  -8403,   -817,  -8333,  11410, -10183,   7561,    338,  -1588,  -1140,  -1049,  -3289,   3226,   4413,  -7036,  -4374,   2156,   -225,  -1513,  -3845,  -3256,  -5182, -10853,   3438, -10120,  -4210,   9973,  -9602, -10986,  -2642,   9775,  -6616,   2668, -14429,  -6417,  -7255,  -7581,  -6285,   5940,  -2081,   9377,   -929,  -7695,   5219,  10025,   5698,  -1731,  -9166,  -7698,  10007,  -7461,  -9497,   5653,  -3700, -11953,   6562,  -5132,  -6336,   4923,  -2539,   -137,   2714,  -7738,   8513, -14245,   6216,  -3072,  -4521,  -1906,   2237,   7990,   5762, -14338,  -3185,   5094,   3290,  -1172,   8194, -10887,  -3998,  -4195,  -6568,  -5063,   -744,  11420, -12252,  -5986,  -3794,  -9188,   3895,   4838,      6,  -3503,  -9640,   6814,   1046,  -6240,  -5124,  -2345,   2136,   2933,  -8987,  -3476,  -5293,   3245,   7892,   7477,   7389,  -6423,   2958,   4898,   1562, -15284,  -9131,   1255,  -1312,    459,   1922,  -3849,  -2981,   -913,   8010, -14062,   8721,  -6946,   8222,   4597,   1104,   1812,  11528, -12094,   4172,  -3562,  -6086, -10439,  -5817,    275,   4313,   7728,   7578,    999,   7265,   8364,  -6185, -14157,   5889,  10263,   7417,   6982,   5526,   1909,   7065,  -2658,  -3684, -10409,  13629,  12438,   2982,   -694, -12661,  -7141, -12671,   2116,   4508,  -3838,   -172,  17351,  -9679,  -9371,   6946,  11415,  -1801,    261,   -861,  -2008,   3789,   5904,  -8775,   3213,   3170,   5717, -13138,   7512,   8074,  -1313,   6619,  -8868,   5472,  12116,   2448,  -2699,  -1882,   8313,   -819,  -3082, -10620,    580, -10504,   6632,   7764,  -4124,   5771,  12095,   1203,  -4292, -10239,   4794,   6777, -16779,
         -1268,  -7659,    622,  -8072,   3912,  12214,   -253,   1007,  10053, -11114,   6416,    841,  -7905,   6958, -11021, -15712,   4899,  -3059,  -6620,  -2711,  -4001,   3709,  -5761,  -3443,  -8996,  -4587,  -3426,  -4057,  -4463,   1478,  -5277,  -9051,   6191,   7393,  -5271,   6927,   3347,   1930,    956,  -6725,  -9771,    833,  -5545,   7510,   3445,  -4448,  -2897,    -46,    533,  -9200,   -879,  -1004,   4335,  -9204,  11233,   1229,  -6791,   9684,     -6,  -1630,  -9572,   8044,  -4788,   9023,   9113,  -2722,  16303,  -1524,   5981,  -9164,  -6744,   7434,  -7691,   2147,  -1773,  -8286,   3091,   4138,    -64,  -7545,  -7038,   2276,     36,  12994,   2947,   1655, -10578,  -1848,   7169,  -6456,  -2921,   2521, -11785,  -1325,  -4916,   6446,   8029,   7950,   2558,   2168,  -7642,  -4275,  -9334,   7685,  -7354,   6424,  -4479,   9388,  12948,  -9346,   3147,  -7507, -10222,   5450,  -1200,  -8721,   7352,   6931,  -1005,  11468,  -2740,  -8766,   5896,  -1564,  -8983,  11153,    949,  -3806,   5983,   3284,   1726,  -4208,   6138,  -6546, -11106,  -5219,   2648,  -4182,  10752,  -6775,  -8381,  13009, -10975,   4003,  -6138,   1736,  10358,   2811,   5405,   2272,  -8101,  -6095,  -9474,   7006,  -2353,  -7007,  -3476,   4198, -15566,  -6673,  -4247,   8363,  -2681,  -1391,   9249,  -5088,  -9926,    557,  -8893,   1695,  -8403,  11221,   2732,  -8938,   6314,    826,  -5862,   1917,   1392,  -4334,   -397,    282,   7636,  -8201,  -5803,    410,  -6828,  -3367,  -2864,  -8838,  -9098,  -3130, -12290,    405,   8869,   1175,   5922,   4134,   6981,   6386,   3974,  -5290,  -3915,  -7431,    -21,   3090,  -7758,  -1228,   3998, -15112,  -9194, -18012,   2102,  -8989,  -6269,   1138,  -4556,   5262,   2498,  -6715,   2880,  -8765,    814,  -8344,  -1822,   5359,  -2685,  -6686,   6156,  -6969,  -1493,   7173,   -104, -10061,   8576, -10152,  -2764,   3688,   6020,  -4298,   9305,  -5090,   1250,  -2121, -10199, -10054,   2955,  -4532, -10351,   6955,   4821,   4602,   3881,  -4703, -11723,   3041,  -4084,  -8312, -10344,  10417,   6946,   2753,   3494,   2987,   7996,  10499,  -1524,   6175,  -2120,   2325,  -3138,   3615,  -2089,    395,  -4180,   -858,   9541,  14150,    187,   8462,  -8338,  -3157,   6010,   8833,  -5840,    348,   2185,  -1936,  -7492, -10697,  -8277,  -1518,  -2939,  -5909,     92,   3322,   9045,   6378,  -1158,  -4736,   5603,   3194,  -3517,    907,    721,   6529,  -9004,   6293,   1911,  -2308,     26,    839,   6642,  -3764, -10063,  -7636,   5415, -12410,   -693,  -4477,   6423,   9941,    819,  -1555, -11012,   7088,  -2121,   8492,   -527,  -4865,  -1058,  -9827,    682,   -591, -10422, -13723,   4117,  -8231,  -9469,  12455,  -6174,   2589,  -3254,  -8597,   5942,  -2734,  -7682,  12081,  -1764,   8520,   -254,  -2423,  -5664,   1329,  -7953,  -3730,   8755,  -2138,  -7135,  11759,   5214,   2360,  -3943,  -1299,   4706,   4022, -12904,    122,  -2545,   3735,  -3469,  -8405,   3160,   8142,   7303,  -9473,   5508,   5244,   6503,   8877,  -3896,  -2871,   3540,   2168,    791,  15932,   1042,   -443,   3668,  -9077,   5060,   5822,   1230,   7359,   5012,  -5186,  -9998,    241,    512,  -1873,  -6234,   6545,  -8564,   3865,   1224,  -8901,    418,  -4691,   1413,  -1153,   2437, -10482,  -6723,   1063,   4858, -10150,   5634,   1543,   8847,  10302,  -8642,  -1182,  -6732,     80,  -7520,   2855,   2775,   2734,  -1403,  -3444,  -6096,  -2758,  -1514, -15809,   3016,  -1037,  -5823,  -9716,   1411,  -2504,    297,   -244,   4245,  -2620,  -4187,  17675,   4263,  -9081,  -8028,  -5875, -10651,  -6766,  -7439,  -9965,  -5941,  -1225,    455,  -2157, -10435,  -6997,  -8828, -10177,   5042, -14934, -10520,   5309,  -5802, -12204,  -8723,  12725, -11062,   5744,   2127,   9296,  -4047,   -704,  -1504,  -3862,  -3774,  -1095,   3301,   1372,   7872,  -4034,  11945,  -3831,  -6205,  -6256, -12136,   7992,   3832,  -8552,   6188,  -3965,   5035,    456,   -924,   6293,   4197,  -6209,  -8525,  11427, -17090,  -6025,   3654,  11526,  -5134,  -5790,  -1518,  13008,  -6466,   1084,
         -1426,   4465, -10900,  -5510,   1707,  13169,  -1488, -10198,  -3227,  -8637,  10297,  -1148,  -4768,  -4713,   -586,  -5596,   4661,   -561,  -8181,   3016,  -2835,   1384, -10772,    274,   2050,  12505, -10249,   3396,   1041,   4622,  -9416,    932,    399,   8258,  -7363,  -6674,   3854,   4891,   -309,    947,   2029,  -6101, -11447,  11810,   8370,  -1185,   6587,  -3401,   5870,    847,  -7516,   6978,     97, -10937,   8393,  -6449,   2804,   6257,  -7479,  -2895,   7748,  -4280,    251,   9179, -12689,   1843,  -1531,  13765,  -4347,   3713,   3255,   7913,  -5334,  -8996,   8804,  -2677,   1506, -10303,   6963, -10554,  10112,   6295,   3021, -10253,   4032,  13861,   8829,   2769,  -9251,  11138,  -3874,  -4951,   8383,   5523,   7756,  -1714,  -7516,  -7113,    373,    -34,   3244,   7123,  -1286,  -1593,  -9931, -12517,  -3204,  14106,  12680,  -9306,   -135,  -7363,   1522,  -1780,  -2357,  14213,  -4153,   9459,   6276,  -1519,   1966,   7297,  -9861,   2854,   6945,  -3366,  -8114,   -258,   8779,  12533,   5322,   6760,  -2252,  -8547,   2804,   4150,  -3415,  -3971,   2925,  -9053,   6173,  11503,   1646,   3920,  -4298,   5226,   3444,  -4448,   6233,  -2457,  -6452,  -2143,  -7119,   1828,  -3160,  -6208,   -145,   5645,  -5096,   3204,  -9828, -12123,   7610, -11338,   1592,   3832,  -6627, -10762,   3156,  -3687,  -5168,   9977,  -5038,   7999,   9538,   2377,   1653,   -371,   1529, -13149,  -2070,  10877,  -7142,  -5233,   2821,  -4007,  -2382,   8923, -10286,   7632,   7985,  -5759, -11740,   -258,   4895,   6471,   9481,  -4900,   5366,   5840,  -1205,   3480,   5682,  -4799,  -2881,   -785,   3657,  -9181,  -9257,  -3669,   3058,   3260,   3139,  -6390, -10952,   -746,   8310,   3692,  -2049,   3589,   8848,  10322,   1944,   9259, -10425,  -4993,  -2772,   2100,  -9006,   1204,  -1085,  -5275,  -8268,  -9251,   6728, -11998,   5802,   1711,  -6689,   1331,  -8352,   8862,   5654,  -1090,    700,   9485,   3285,  -8634,  -1294,  -3260,   3676, -10187,   2659,   9535,   3395,  -4809,  -5244,    -25,   8847,  -1298,   1716,  12194,  -7283,  -3234,   5362,   1282,   9859,    748,    548,   6563,   2493,  -4197, -10317,   3733,   1972,  -4983, -11176,     86, -13419,   4090,   -780,  -8063,  -9124,   8727,  -7072, -10239,   1203,   7601,  -5092,   1636,  -6448,   3243,  -3118,  -9915,  -1897,  -8195,  -9586,   3759, -11412,  -9501,  -2395,  10279,  -8995,  -1147, -12704,   3337,   2428,  10863,   6711, -10733,  -3705,   3044,   3367,  -1152,   8386,  -6319,  -2886,   3595,  -4435,   5268,  -5779,  -7810,    327,   2517,   5336,   6549,  -9769,   3826,  -9558,   5189,    115,   2102,   4988,  -4142,    189,  -2057,  -9695,  -1700,   4831,  -5925,   6696,  -9697,   2147,   1312,   1581,   -668,  -7032,   4633,   9938,  -9542,   9310,   6626,     33,   -573,    695,  -7231,    772,   7279,  -2620,  -8620,  -8555,    868,  -4140,   2338,   6695,   4791,   6364,  -6928,   9738,    373,   8235, -11173,  -5588,    503,   3582, -10557,  -7664,   9408,    442,  -6568,  -5155,   6146,  -7979,   -546,  -7276,   4473,   -334,   3209, -10090, -10244,   9080,   9928,  -4972,   4645,  -4021,   5117,  -4427, -10712,   9594,    -83,   5890,  -5501,   3657,   8946,  -3764,   7965,  -2653,   7549,  -3842,   2429,   4043,  -3044, -10016,   9535,  -3865,   9227,   1406,   9323,   3888,   4280,   6328,  -3811, -10736,   2821, -10419,   9139,  -1029,  -7475,  -2465,   2934,   4815, -11089,   -273, -14257,   2991,   6006,   2132,   3240, -10395,  -2843,  -1349, -15569,   -362,   2975,   9042,  14942,   4770,  -3066,   7359,   3002,   9931,   8905,   7893,  -8397,   5256,   2717,  -1401,   4147,  -7351,  -6132,   2114,  -2682,    939,  -8420,  -3577,  14024,  -1441,  -1242,   9054,   5102,  -4635,   -510,  -6006,   6820,   8646,  11839,   6122,   -496,   9572,  -3018,  -6315,  -3241,   9746,  13230,  15524,   6695,   -591,   6512,  -3670,  -6363,   3670,  10064,  -7649,   4967,  -3481, -12749,   9088,   3870,   3126, -13055,  10236,  11037,   -288, -11340,  -8952,  -3935,    659,   3801,  -4964,   -774,   8599,  -7970,
         -6903,  -9787,  -4455, -10292,   -607, -11661,  11141,  -2588,   2954,   1244,  -4804,   6732,  -9279,  -7634,  12165,  -9749,   1357,  -1502,  -9067,  -1834,    683,  -8938,   6281,  -9737,   7991,  11615,   5365,   5951, -10631,   9108,   3441,    178,   4106,  -2632,  -1935,   4878,  -1248,   4418,   8721,   2628,  -3983,   9114,    312,   1312,   4927,   9569,   7010,   1526,    406, -18607,   2097,  -6795, -10311,   2280, -14401,   6823,   9642,  -9945,   3565,   7208,  -3503,  -6320,  -8560,   8334,   7518, -10679,  -4895,   5850,      1,   -483,   5046,  -1033,   1503,   1042,   9907,  -9179,   8372,  -1416,   5052,   5218,   6203,   4179,   5864,  -5529,  -6940,  -8438,  -9624,   5386,  -4087,   7463,   3435, -11296,  -9680,  -8799,   7916,  -3276,   1495,  -4431,    858,  12797,  -9512,  -1998,  13252,   3229,   5342,  -1248,    819,  -5022,    481,  13264,   4579,  -6284,  -2084,   5670,   9540,   8856,  10499, -12271, -10717,   3538,    113,   6171,  14013,  -1938,  -6102,  -9630,   2463,   5394,  -5578,  -2942,   2830,   2683,   8028,  -2165,    188,  -9315,  16618, -16778,  13915,  -3386,  -8589, -10735, -11751,   1029,  -5545,   1205,   5805, -11534,   9266,   3143,  -1574,  -7636,  -9915,   7590,   2251,  -1094,   3086,  -9603,  14693,  -4926,   3832,  -3057,   3886,   6739,   3686,   -945,   3422,  -5851,  -2427,  -7373, -15349,   5922,   1876,    -44,  -1525,   8570,  -2715, -10486,   2577,  -2945,   1386,   2395,   5278,  -8593,   5342,   3378,  12325, -11888,  -3838,  10413,   -726,   6261,   8585,   8714,    834,   1075,   2648,   3508,  12753,  -6625,  -7694, -14564,  -1816,  -7637,  -4842,  10853,   5985,  -2102,  -1622,   -601,   1811,  -5082,   1934,   6457,   8425,  -1310,   3552,   2793,   8728,   8976,   1758,  -9929,  -7803,  -1841,   9511,  -5700,  -1765,    413,   2418,   8399,  -4126,  -1216,   9831,  -7583,  -3911,   3732,  -4290,  10256,   9397,   3329,  11356,   1285,  -8499, -12900,   4238,    446,  12814,   -123,  -6752,  -9296,  -2770,   6762,  -6116,  -1492,   4049,  -7792,  -1163,  -9186,   6487,   -574,  -8139,  -1691,  -2434,   9063,  -8015,   3520,   5822,  -8386,  -3784,  -7280,  13148,  -6766,   9328,   6885,    222,   1839,  -7700,   8557, -11251,  -8767,   1027,  -4192, -14096,   7628,  -5717,  -3537,   4426,  10878,   9967,    693,   6871,  -5466,  -8553,  -5384,     -4,  -2584,   9237,   1801,  10971,  -3897,  -8331, -14046,   6837,  -3343,   8108,   5851,  -9302, -11081,   2154,  -8914,  -2159,   2098,  -4023,  -4317, -10322,  -1450,    943,  -7106,   2885,  -1232,  -7374,   -851,    639, -11292,   7408,  -5625,  -2224,   5068,  -5202,   1303,   5480,  -5318,   7570,  -1602,   1686,   5117,  10419,  -3083,  -8019,  -9585, -11155,   1324,   9797,   4556,  -7982,   7357, -15491,    412,   6152,  -8584,  14259,  -8621, -11239,     -5,  -8840, -10384,   -131,   -102,  -1096,   7712,   3441,  14028,   4994,  -2622,   5410,  -6340,  -4353,   4217,  -4186,   2405,  10578,   3940,    986,    171,  -5419,   4178,  -4349,   8120,  -1627,    120,  -6022,   8158,   3370,   9276,   4290,  13069,  10053,  -1394,   3405,   7386,   5634,  10972,  12551,    910,   7998,     46,  -1073,   -389,  10587,  -4017,  -6154,   -385,   4545,  -4629,  -7884,  -7592,   8492,  -9776,  11470,  -4127,   8407,   1063,  -1344,  -4338,   4905,  -1842,  -9508,  -6046, -11273,   -807,  -7958,  -4050,  -2714,  -5303,  -5975,  -9908,  -9050,   6877,  -6746,   2208,   6791,  -1045,   4892,  -3287, -12174,   -664,  -8126,   4512,  12348, -10560,  -1454,  -1644,   9536,  -3775,  -4645,   4004,  -8787,  -8327,   3265,  -6037,   -238,  -5730,   7818,  10578,  -7047,   9301,  -2639,  -9951,  -7103,  -3084,   7284,  -9346,   1899,  -1433,   2862,  -6113,   8009, -17911,   9477,    336,  -1479,   3109,  10567,  -4001,   4528, -10898,  -4441,   9597,  -8758,  -2648,  16140,   8803,  -2502,   1551,  -9882,  -3001,  -1265,   -827,   -930,  -6059,  -6406, -12631, -12282, -10733,   -551,  -8348,  10193,   -523,  11051,  -2356,  -3633,   2614,    664,  -9978,  -4814,   3452,  10136, -13175,  -1509,   4002,  -3136,   -176,
         -9797,  -3526,  -7522,   4424,  -5906,   1062,   1407,   4604,   5814,  -6157,  -1255,  -1794,    320,  -7710,   8556,   5539, -14105,  -4651, -10124, -12329,   4643,   9775,   8839,   5434,   1890,   3269,  11820,  13029,   2059,   1823,   2647,   7405,  -4570,  -5229,  -2892, -12116,   -858,  10610,   8937,  -2827,  -7963,  -4662,  -5553, -12088, -10664,   -106, -11974,    -55,   4319,    286,  -2230,  -2433,  -7412,   7931,   -281,  -3227,   6998,   4062,  -3830,  -6954,  -6393,   4791,  -7099,   1055, -13794,   5887, -13672,   1456,   9836,   2428,   6928,  -9766,   1806,  -9288,  -9187,   5569,  -5419,   5547,  -3997,   8280,  -1715,  -2389,  -4897,  -2101,   6709,  -2639,   5359,   2675,  -8439,  -8936,  -6590,   6052, -10045,  10043,  12414,   5187,  -8670,  -7491,  11539, -10325,  -8769,   2879, -15971,   4554,   8400,   6423,  -4857,  -3311,  -5759,  -3185,   2511,   5311,  -6973,   7448,   4698,  11491,   9879,    -61,   3849,   9908,   5957,   5067,   2277,   5032, -10824,   4957,  -8142,  -7947,   4757,  -7916, -13224, -11370,   3375,  -2882,  -2730, -10212,   2270,  -1582,   8195,    -48,   8744,   -952,  -2945,  -4403,   6164,  10152,  -6504,  -5171,  -4194,   1885,  10233,  -8964,  -5075,   9423,  -1778,     28,  -8316,    131,  -4442,   6382,  -7828,  -5802,  -1141,  -7526,  -1831,     62,  -1223,   1353,  -2113,   7037,   3050,  -1850,   8603,  -3838,  10588,  -1865,   5251, -17137,   2017, -14365, -11115,  15303,  -4455,   9292,  -5273,  -2255,  -5555,  10790,  -4796,  -3010,   5255,   3654,  -6826,  -9014,  -6147,   2208,  -4845,  -4277,    373,   8072,   2568,   1741, -10281,  -2833,  -4341,   5867,   4611,  -1466,  -3228,    294,  -8038,   6536,  -8843,   -634,  -6431,   -973,   2850,   4767,  -5409,   1668,  -7014,   4733,  -5793,  12844,  -8351,  -6415,  12797,  -6192,   4894,  12454,   -651,   1034,  -5941,   5808,   8099,   4932,  -8382,  -4973,  -6795,   4500, -14146,  -9268,   -159,  -5557,  -5054,   8634, -10656,  -5311,  -6300,  -7846,    490,   6042,   1748,   6427,  -1164,  -4575,  -2057,   7094, -10604,  -7489,  -1391,  -4314,  -6557,   5458,   6066,   3718,  -4161, -11851, -10047,  -2140,  -6849,   6995,  -5933,  11273,  -3379,   5953,  -3247,   2586,   6327,  -8642, -16238,  -3970,   5820,   8576,   2170,   4906,  10310,  -7806,  -2031,   1297,   2820,  -8147,   4779,  -3940,  10421,   6189,   3995,  -3583,   7868,   2781,   2315,   7048,   5297,  -1386,  -3184,  11909,  -1316,  -9563,  -5618,  -4739,   1241,   3108,  -5026,   7862,  -9028,  -6871,   9256, -11572,  -2953,   7258,  -3748,   8773,   2161,   -340,  -1696,    461,   1305, -10821,   -676,   6096,   5780,   3609,   2573,   1209,  -3618,   2664,   7917,   3792,  -2690,  -4791,  -2747,  -4024,  -7742,   3464,  -4200,    734, -14288, -13278,  -2933,  -8283,   8953,   4329,   6000,  -9835,  -7782,  -8518,  -2006,   8064,   9656,    491,  -9669,  10128,  13319,  -7347,    262, -13220,  -5865,  -7119,   1596,  -4415,   -551,   2087,  -1711,   2007,   1959,   7477,  -1268,  -6636,   2552,  -8573,  -4469,  12853,   5300,  -8786,   1119,  -2054,   4394,   3543,  -1031,  -8972,  -4414,   6726,  -1786,  -8509,  -1410,  -5087,   9526, -20646,  -6795,   4164,  -5486,    152, -12728,   5691,  -4829,  -3232,  -2783,   3761,  -1007,    484,   9895,   -374,  -8474, -12254,   3144,   8315,  -3884,   1492,   8845,      0,   3751,   8396,  -5433,   9595,   6161,   3858,   7776,  -3006,  -6695,  -4410,   5343,  -3458,  -1767,   5832,   2205,   6950,   7168, -18015,   4987,  -1494,   7050,  -3461,  -5257,   7743,   8910, -16370,  -2274,   7949, -10424,  -4846,  -1370, -12171,   2357,   1263, -14720,  -7825,  -4792,  11194, -11975,  16182,  -6078,  -3101,  -1631,   5257,   5494,   7432,   7543,   8100,  -2736,  -4156,  -7501,    961,  10165,   5684,   9819,  -2807,  -4868,   4250,  -6856,  -9114,  11453,   5473,  11968, -10450,  -2940,  -4711,     78,   2902,   2581,  12092, -10718, -11841,   2711,   9924,   6887,   5964,  11130,  20327,   3314, -11099,   5495,     78, -13802,   1015,   7574,  14145,  10373,  -4800,   6738,  -2191,  -1332,   -112,
        -11701,   8110,  -1676, -10149,   4245,    491,  -3867,   -766,  -9658,  -3105,  10379,   3391,  -6980,  -3387, -10977,  -2750, -14034,    993,   6775,   9471,   6337,  -7141,  -8083,   2479,   8631,   3723,   6735,   3928, -11794,  -9198,   1900,   7269, -14968,  -5034,  -8780,   3960,  -4326,   8129,  -5542,   4802,   -894,   4541,  -7447,   9167,   -172,  -3549,   -734,   2333,  -7743,   -215,  -5963,   8285,  -7519,    -81,    219,   6834,  -3506,  13008,   -690, -11016, -11414,    261, -17452,  -7470, -13024,  -4058,  -2625,  -2827,  -7474,  13257,   2814,   8590, -11660,  10197,   8596,   5038,   2562,  -1954,  12297,   4726,    638,  -6522,  -6135,  -3099,  -4881,   8196,  -5358,  -6775,  -8042,   2755,  -9568,   7582,   -660,   8103,   8036,  -3849,   7643,  -8414,   5904,   -513,  -7853,   5123,   1980,   8383,  10343,  -4039,  11283,   3626,   1452,  -1953,  10347,   6467, -10446,   -221, -10162,   -490,   2615, -10265,  -5494,  -8779,   7669,  -5309,   3045,  -5969,     77, -10663,  -2537,   2623, -11079,  -4577,  -1840,  -6089,  -5212,   9557,   -188, -10976,   1171,  -5240,  -7721,     20,   8588,   3050,  -2628,  -4943, -10891,   6368,  -2555,   9802,   -767,  -7683,   7467,  -8134,  -8685,   4617,   6768,  -3542,   1175,   3374,   3270,  -4402,    123,  -1355,   6917,   1595, -10009,  -6742,  12601,   4507,  -9599,   6197,   2252, -11234,   9254,   4358,  10438,   3113, -12347,  -3016,   -718,  -9088,   -882,  -2943,  -3818,   2250,   3164,  -2233,  -7673,   -812,  -5524,  -1344,  -7232,  -5169,  -5791,  -4470,   -806,  -6553,  -6705,   9784,  -6530,  -5488,  -7390,  -1609,  -4936, -11924,   5560,  -2257,  -6960,  -5908,  -6139,  -9638,   4730, -14673,  -9362,  -3022, -10253,    898,  -4132,  10100,  -4808,   -732,   6056,   2642,   4315,  10394,   8061,  13166,   4446,    522,   5380,   3835, -10435, -10167,   2078,  13152,  -5331,   1275,   6567,   4024,  -8610,  -6327,  -2074,  12610,   1365,  -9917,  -9759,  11803,   6236,  -1643,   3961,   2336,  -5517,  -1473,   -949,  -8429,  -4700,   4789,   6903,   5957,  -4042,   9442,   9358,  10931,   8769,  -8905,  -8512,   2915,  10131,  -5830,  -4068,   -303,  -4579,   6073,   4911,  19319,    948, -11655,   1026,   6545,    553,  -2510,   2367,   3773,   2705,   5509,   -968,   9049,   -795,   3013,  -7059,  -7344,  -9215,   5490,     53,   6592,  -4096,  -4226,   8595,   2643,   7213,   9935, -10597,   1568, -15154,    807,  -2894,  -3847,   4043,   6108,  -1110,   9716,  -9671,   7196,  10612,   5027,   1962,   5713,   4819,  -5808,  -3357,   -921, -11575,  -8662,  -7941,  -2065,  -9956,  -3804,  -3186,  -8777,  -5389,  -1905,   -849,  -4657,  -4997,   -492,  -2499,   7035, -11771,   5106,    980,   6043, -10507,    399,   3466,  -8981,  -8271,   5452,   -992,  -1287, -11553,   5290,  -7092,  -8872,   8195,  -3107,  -3920,  -2324,   4475,  -3571,    928,    272,  -9215,   7146,  -8042,   9760,   7844,   1962,   8028,   6508,  -1990,  -7488,  -9883, -13293,   4387,  -1701,   5227,  -3717,  -9901,  -6561,  -3870,    570,  -9059,   1611, -10889,  -9072,  -4014,  -5880,  -7008,  -7300,  -6686,   2131,   -721,  10298,  -8617,  -7487,  -8413,  -8089,   2617,   5722,   9102,  -8726,    433,  12330,   2844, -12456,    113,  10492,  -8200,  -1019,    305,   6322,   7187,  -2609,  -9653,   3286,   7513,  -9068,   -506,  -7637,    793, -11863,  -2241,   8300,   9297,   6455,    223,   2504, -10209,  -5760,   7631,   5124,  10069,  -4380, -14384,  -4944,   6247,   3436,   4927,   1016,   5528,   5981,  -4831,  -5981,   6907,  -4582,    747,   4585, -13769,  -3086,  -9487,  -1062,   4290,   3885,  10788,  10909, -12403,   6649,  -4781,  -2442,   -131,   7167,  -3256,  -4852,  -2587,    393,   7425,  13988,  17118,   4835, -10384,   4449,  -4409,  -7002,   2823,   8459,   5706,   -260, -10217,   4683, -12990,   7803, -15452,   -465,  15285,  -3884,  -7685, -11533, -13474,  -5792, -10960,  -6971, -10039,   3633,  -7295,  -8428,  -7213,  -9230,   2706,  -4856,  -2813,   2870,  -5732,  -5842,  -6002,  -6252,  -7581,  17317,   5607,     27,   6598,  -1127,   4668,  -3473,
          5161,  -5421,   3944,  -8702,  -6639,  -6953,   9011,   3150,   3582, -10982,   7308,  -7678,   1643,   5281,   1380,  -6679,  -5050,  -5710,   8232,   5067,  -8379,   3259,  -1374,   8748,  -1762,  11136,  16463, -15479,  -3245, -15847, -10579,  -7683,   2367,   7130,  -6551,    174, -11963, -10372, -14353,   4615,  15524,  -5731,  -6258,   5334,  -1444,  -5175,   9381,   9959,   8399, -10117,  -5666,   6289,  -6517,   3318,   4791,  -1404,   8975,   5032,   6567,   1834,  -6459,   4675, -14396,  -6719,   1209,  -7503,  -5904,  -7271,   6966,   7783,   1092,  -7776, -10429,   4815,   8899, -10993,   -493,  -9343,   8367,  -7456,  -1674,  12711,  -1575,  -1207,  -8077,  -2248,  13514,  -2495,    635,  -3353,  -9820,    -87,  -2206,   6325,  -4428,   3811,  10928,   5673,   9227,  12306,   1558,  -9212,   5075,  -3390,  26164,   7138,  -5098,  -1217,   9418,   7651, -12031,  -6821,  14050,   2955,  -5202,   9622,  -2702,  -1605,  -3806,  -7539,   5357,  -3088,  -7915,  -8217,  -8343,  -3806, -11668,  -1071,   6663,   3167,   3609,   8871,    442,   2548,    478,     48,  -3048,  -1819, -12697,  -4246,    911,   1051,  -6681,  -8221,   3397,   2213,  -2009, -10061,  10189,    866,   2669,  -7129,   -246,  -2934,  -4227,   6853,   7370,    663,   9056,   7967,   4605,   4257,  10624,   7196,  -1633,  -9201,  -6461,  -8842,   1403,   1068,   1156,   -350,   6963,   5131,   1426,    875,  -7343,  -9599,  -8035,   6302,  -8756,   7652,  -6777,   5664,   3765,   9450,  -2019,  -2044,  -2523,   8073,  -2337,   2714,  -5188,   6135,   4515,  -9466,   4266,  -9001,   8098,   8717, -16440, -11447,  10314, -14011,  -1928, -10011, -10383,  -9575,   5033,   -484,   5524,   7122,  -2835,   9379,  -7930,   5914,  10021,  -4118,  -9499,  -4326,  -5860,  -4563,   8559,  -7980,  -3291,   4156,  -4485,   8465, -10936,  -2255,  11174,  -1132,   5322,  -1376,  11040,   7445,  -2846, -12492,  -9803,    895,  12745,   -148, -12770,  -2973,   4904,   -908,   9135,  -7133,  -7066,   8152,  -9781,   2474,   -358,   3599,  -1856,   5604,  -5738,  -1071,   2377,  -8126,  -5946,  -3655,   9392,  10093,  -1190,  14332,   7813,  -4571,  -2510,   6108,  -7731,  -1632,  11870,  -1083, -10729,   3634,  -7498,   -338, -11212,   -109,  16461,   8783, -11051,  -6593,   2768,   7403,   5756,  -9064,    412,   7790,   6415,  -6504,   9807,  10124,   3515,   5488,  -2010,  -4498,  10847,  -5284,  -3451,  -5580,   7058,   7005,    564,  -9617,  -5329, -12058,    181,  -8822,  -6604,  -8966,   2308,  -3637,  -5929,  10527,  -3694,  -1811,   3276,   4341,   -665,  -1535,  -3037,   6308,   4215,    425,  -7207,  -5093,   1811,  -4681,   8767,   -914,  -9236, -10265,  10725,  -3914,   6122,   1909,  -6385, -10029,   1166,  -8474,   5406,  -5477,   1200,   6112, -14239,   1759,  -2235,   5810,   6492,  -3662,  -3753,  -4692,   9821,   7244,   7242,   4136,  -3099,   5003, -15077,   1991,  -8299, -11304,   -319, -17137,  10646, -11026,   8906,  10069, -14916,   6388,  -3447,    294,   7005,  -6256,   8826,   2157,   9584,  -6935,   1423,  -3900,   3104,  -1219,  16866,   1452,  -5578,    618,    867,  -1474,  -4575,  -3865,   4073,   8208, -12958,    408,   4482,   1499,  14176,  -4986,  -8779,  -4176,  -8731,   2907,   -981,   1719,   -354,  -2059,   1022,  -6546,  11531,  -8284,   9449,   3849,  -8564,    962,   2798,  -4038,   9866,   2160,   8963,  10476,  -3028,   8838,   5357,  -5632, -10840,  -5305,   2645, -12751,   5961,  -7136,  -3688,   5077, -11528,  -6188,  10434,  -9411,  12915,   1790,  13635,   8579, -10247,  -4323,  -8959, -14206,  -3280,   3923,  -1558,   -579,   9223,   2309,   5041, -10143,  -6186, -10485,   3591,  -4466,  -8776,  -9661,   5891,   -849, -11335,  -6051,  12325,   9614,  10028,  -1944,   -107, -10468, -13148,  -4970,   7223,  -1438,  -6082,   4107,    -88,  -7390,  -1356,  -7709,   6014,   1684,  -2900,  11920,   -171,  -8617,   2669,   9685,  -5778,   5575,  -8483,   5965,  -6729,   9005,  -5939,   9696,  11382,     61,  14484,   1629,   -845,  -9318,  -8006,   2812,     22,  -2990,  -8112, -11213,  10018,   1227, -11369,  -7253,
          4584,  10936,  -6593,  -5502,   5029,  -4080,   3041,  -6786,   4435,  10771,  -3245,  11361,   9367,  -6175,   4904,   1089,  -2207,    500,   8751,  -5802,  -8971,  -8393,  -5183,   1076,   4028,  12045,    719,   2826,  -1712,   6126,   4419,  -6049,   7878,  -8615,   7939, -10288,  -2683,   2644,   1684, -10545,   2528,   9885,   2114,  -5425,   5827,  -6779, -11455,   1082,   8854,  -4809,  15811,  -1419,  -1976,   5811,  -6477,  -2771,  -2333,   8266,  -8895,  -2088,   5310,    842,  -7338,   8168,  -8988,  10652,   9022,   6086,   2428,   1433,  -4719,  -1768,  10503,   2406,  -1562,  -6437,    635,  11783,    123,  -3105,   9061,  10046,  -4099,  -4448,  -6493,    460,   2108,   6558,  -6193,  -7181,  -7464,   2001,  -3364,  -6862,   1181, -11738,  -8845,   -902,  11451,  14298, -10236, -10744, -15519,    568,   5256,  -9949,   4803, -10898,   4409,  -8741,   6087,   5259,   2847,  10801,  -6731,   4178,  -3744,   9643,   9806,  -3462,   1918,   1170,  -4302,  11953,   1509,    808,  -5064,  10052,   4852,  11675,   6140, -10520,  -2371,      5,  -8602,   2848,   -368,   5448,   -689,   1911,  -7027,   -872,  -8378, -10490,   5352,  -4515,  -4147,  -6612,  -7427,  -5001,   6314,  -4849,  -4263,  -8154,  -9570,   1409,  -4915,   6018,   2675,  -5527,   8929,   4563,  -6045, -12056,   1802,   3061,  -5567,  -5191,  -4055,   4247,   9811,  -4478,  -4205,  -2821,   5669,  -3960,  -3334,   -734,   6708,  -2187,   2955,  10436,   9030,  -8383,  -8714,   3879,  -6227,   1779, -10301, -10498,   5319,  -8390,  -3858,  -6593,  -9414, -14478,   1630,   4539,   4828,   4154,   6511, -10036,   -317,  -3700,   5030,  10727,  -7951,  -4565,   3109,  -4401,   3571,   4005,   -861,  -3207,   6151,  -7870, -10267, -10058,   8728,   -707,   8666,  -1178,    978,    259,   4880,   6852,   8944,   5682,  -2078,  -4182,  -3511,   7745,  -2155,  -2804,  -3313,  -8018,   9352,  -3972,   4082,  -9103,   8611,   6503, -10942, -11395,  -9763,  -5557,  -3806,  -3244,   2123,   1309,  -8264,  -7417,    379,   7416, -12525,  -7048,   2380,  -9608,   6585,     44,   7430,  -3581,   3660,   8354,  -4961,   -176,   7303,     50,  -5083,   5208,  -8190,  -9192,  -2998,   4685,   8874,  -6289,  -1786,  -4155,  -7844,   8585, -12408,  10050,   -605, -13616,   4810,  -2101,  -7863,   1772,   1114,   -134,  -6767,   4108,   4426,   2897,  -1864,  -9490,  -1186,  -8673,  -2476,  -4866,  10031,  -8578,  -9868,   4019,   5524,   2454,   9419, -12371,   6129,   3391,  -4567,    576,  -7139,   3567,  -8704,   4144,   1348,   8915,  -1632,  -5546,  11059,  -7939,   7133,  -7491,   9769,   1591,  -2625,   9744,   4924,  -9244,   6686,   -620,   5392,   8984,  -3554,  -5896,   4876,   7582,  -9286,   7200,   2354,   7459,  -9475,  -9738,  -2703,  12148,   7627,  -9795,  -2492,  -2181,   3049,   6007,   9814, -13136,  -9933,  -3960,  -4092,   9180,   5409,  -1692,  12219,  -2765,    810,   9018,  -2541, -15242,  10794,   8990,  -6268,  -8943,    456,  17519,   4798,  -8086,   3462,   -521,  -6293,  11828,  -4773, -10500,   3003,   6770, -12071,  -6147,  12432,  -5748,  -3338, -14776,   1380, -13481,   4277,   5664, -11325,   3348,  -6869,   2457,  -3702,  -8181,  -7732,  -8166,  -1533,   6943,   2500,   7378,   3834,   6678,   4074,  -7056,  -3121,  10145,   9047,   5715,   4722,   8963, -13298,   6373,   1076,   7899,  -8043,   4068,  -5710,   1542,   7836,     20,  -4115,   2947,  -2678,   8591,  -9781,   3780,  10342,  10375,   3574,   -606, -12063,  10627,   7449,  -2459,   2693,   5674,  -3881,   8986,  -8464,   7657,    102,  -6170,  -5775,  -2269, -10128,   3973,   2283,  -9609,  -9336,  -4589,  -4127,   5540,   7496,    415,   8107,   6924,  -9454,   -209,   4664,   4429,  -1595,  -4994,   2304,   4338,   3869,  -8304,   2675,  -3822,  13296,   4044,   2916,  -5580, -11116,   1806, -10265, -10581,  18244,   6607,  -2485,  10393,  -9193, -13525,   1877,   -522,   -892,  -3425,  -8326,  -6710, -10824,   1780,   9175, -10225,   9377,   7156, -11732, -12212,  -8538, -12354, -14131,     -1,   9244,    559,  -6430,  -3360,   7938,  -9016, -18644,   5371,
          3733,     96,  -9349,   7171,  -1373,  -2252,  -2474,   5650,  -9206,  -3640,  -8721,   4375,   2468,  10771,  -4075,   9044,  -7469,   6900,  -9843,  -5174,   2853,   1010, -10465,   7487,   7301,    962,   1910,  -1669, -11506,  -7631,  -9749,   8143,   3412,   9389,  -9447,  -7894,  -7113,  -9111, -12007,  -3336,   1747,  -2008,   8457,   7237,   5657,   8043, -13648,  -3776,   6122,   8741,  -1136,   7754, -10360,   1740,   5410,  -3154,    377,   5384,   3880,   8239,   1263, -12146, -15193,   5006,  -3508,  -4187,   -669,   1586,   6872,  -5991,  -7461,   9422,   3851,  -5532,    106,  12754,  -2775,  -3233,  -2617,   5643,   3668,    973,     12,  -7010,  -6334,  -8528,   4747,   9711,  -6448,  11698,  -6205,   5076,   1826,   5424,  -7947,   9636,   2718,  10156,   5014,  -6836,   7138,   -755,    573, -10609,  -5745,  -6059,  -6433,  -4222,   -971,  -6958, -18949,   9347,  -4810,   1238,  -3044,   3516,   5140,   4022, -13838,  -8263,   5245,   6157,   3047,   -290,   8103,  -2710,  -1225,  -8426,   2261,  10523,  -2600,   2202,  -5813,   2732,  -9400,   -896,  10926,   5991,  14330,   4943,  -1001,  -1646, -18706,   5040,  -7807, -10476,  -1139,  -3019, -10351, -13246,   7406, -11171,  -9195,   6278,  -8259,  10217,  -1184,  -4246, -13076,   4073,   3622,  10282,   2905,  -7755,   5202,    -73,   -112,   2167,     63,   9249,    243,   2843,   4092,  -8289,   8393,  -4082,  -8551,  -6983,  -3626,  -4913,  -2834,   2992, -11990,  -5128,   8509,  -8609,   2213,  10969, -12099,   6662,  -2520,  10382,     -5,   8275,   9135,  -4257,   5644,   3319, -11721,   5604,   5664,  14349,  -3669,   8102,  -7085,  -5090,   3283,  -5549,   2065, -15870,  -4248,   3311,   6869,    134,  -3720,   -454,   1813,  -3241,   5187,   2137,  -9567,     20,   9424, -11841,  -1743,   3420,  10154, -14628,   6409,  -9872, -12421,   3534,  -4490,  -5476,  -1686, -11385,   7698,  -8720,   1448,   2637,   1251,   6784,  -2300,  -7158,   2824,  -6874,   5669,   8537,  -4078,  -5757,  10202,  -5435,  -3510,  -7372, -16525,  -3087,   4954,   -692,   6370,  -9663,  -8510,  -3332,  -6006,   4675,   2388,  -4263,   2131,   5156,  -7903,   2439,  -8800,    410,  12490,  -3955,   9830,   5929,   2460,    833, -12244,  -9034,  -8088,   8094,   3627, -10800, -11054,   -208,  -2972,  -2775,   2639,  -1634,   8426,  -8310,  -4239,   1102,   1781,   6777,   9009,   2971,   7896,   2710,  -6192,  12261, -13011,  -2316,  -3350,   8526,  -3751,  -7276,   2579,   3291,   3148,   1701,  -5619,  -1494,  -7212, -11259,   7754,  -3201,   7528,  10077,   1076,  10832,  -8092,  -3438, -11972,  -4173,  -1422,  -5537,   3227,   1256,   2896,   3200,  -7959,   4774,   4441,   5463,  -5304,  11360,  10028,   7610,     16,  -2636,   9596,   1140,  -1571,   7006,   4864,   7588,  -7856,   6875,  -3477,  -1481,   1402,   5292,   3462,     57,   7434,  -3176,  18805,   4765,   1329,   9395,   1474,   -991,  -4944,   4102,  -2393,   2081,   3900,  -1192,   8910,  -6403,   -852,   4397,  -7466,  -1182,   4699,  -4403,   8569,   7661,    469,  -1049,  -2234,   1587,  -6257,  -7561, -12290,    -97,   4610,  -1076,   3976,    881,   5786,    840,   7100,   7747,   5370,   3484,  -6589,   5986, -11161,  -6109,   3676, -11607,  -1999,   5115,   8653,  -1437,   6252,   9117,  -7258,   6892, -10428,   4097,   -171,   4189, -10375,  11842,  -5478,  -4680, -11465,   6447, -11909,   6910, -13005,  -9050,   6847,  -3698,   3553,  -2007,   3330,  -7439,  -4482, -11446,   8594,  -8842,  -9889,   2125,   1748,  -1039,   6095,  11978,   -210,   5133,  -2303,   2769,  -6604,  -5586,   7508,   7586,  -7160,  -7458,  -7801,   4874,  -1535,  -2995,   4150,   -177,  12009,   7708,  -1477,  11852,  -7532,   3833,   3776,    739,  -4959,   1816,   5381, -15653, -10256, -10493,  -3348,  10333,  -7092,  -8609,  -4375,  -3316,  -9953,  -2873,    984,   9174,   -693,   2303,  -3640,    604, -18098,  -4707,   6538,  -5228,  -3332,   8589,   5773,  -3062, -10027,  -3435,   1997,  11941, -11397,  -1723,   2886,  -7387, -11195,   2753,  -1400,  -5463,  -5353,   6745,  -5483,  -7352, -21599,   5322,
         -7237,  -8200,  12908,   4614,   4557,   3545,  -9110,   2156,  12803,   9452,  -2793,   6842,   -955,   3736,   6321,  -9312,   2932,  11237,   6367,  -2381,  -7770,  -2071, -13185,   2020,   1275,   2360,   2274,  -1277,   7754,   5572,  -4525,   -740,   -834,  -9537,  12177, -14629,  -9969,  -3336, -15944, -10500,   5338,   6803,  -3684,  -4249,    775,  -6111,   6178,   1139,   3196,   4857,   1957,  11781,   -638,   7977,   2024,  11328,  11899, -12439,   -213,  -9112,   2821,  -3065,   3424,   3630,  16855,  -4884,  -2394,  10772,   3723, -10377,  -9765,  -5927,  10589,   1058,    508,   8899,   6388,   3157,   4730,   6609, -10881,   7485,  -3108,  -2692,  -7528, -10142,  -4882,  -5702,   6543,  -7271,   4462,   2864,  -1840,  -5256,   6126,  -7948,   8107, -16024,  13688,   -977,   7106, -12468,  -6987,  -3066,  18313,  -5984,  14221,  19577,  -8955,   -256,   5220, -10988,  10213,  11971,  -6770,  -4505,  -4598,   8535,  -8982,   8317,   2832,   1937,  -7079,  -4840,  -4823,  -3868,   7961,   7446,   -936,  -1485,   4302,  -6547,  -2013,   8571, -11424,   6524,  -2323,   1764,   4259,  12594,    686,  -9661,  -7665,  -3232,   7884,  -6165,   3687,  -8000,   6749,   6605,  -8119,   2127, -14309, -11206,   -835,   4851,  -9115,   3137,  -9162,   2593,  -4498,  10737,   3577,   6247,   3825,   -194,   2751,  -6284,   3543,   8179,  -4541, -10129,  -6489,  -4394,   4069,  -4260,  -1518,  10859,   8603,   4087,   7963,  -4026,  -4549,  -5720,  11478,   3158,  -1696,  -7698,  -6665,  -2276,  10769,    -19,   8104,   8158,  -6865,   5162,   8018,  -8822,  -4428,  -3396,  -7267,  -3100,  12124,  -4857,   4326,   3095,  -5753,   8716,   1206,    371,  -1273,  15804,   3043,   7026,   8526,   7899,   5811,   9544,  16776,   2476,  -2546, -10985,   9273,   8789,    -13,  -9920,  -6244,  -6400,   6668,  -6593,  -9330,   5283,  -3667,  -1475,  -4286, -10364,  -8376,  -5677,  -1343,   9270,  14027,  -4288,  -1202,   1015,   8916,  -6589,   -169,   7707,  -6292,   3187,  -1648,    201,   9403,  -4805, -13676,   1875,  -8976,  10102,   2998,   8589,  -4906,   -261,  -2921,   -592,   9587,  -7711,  -5247,    181,  -7357, -10092, -12178,  10133,   5053,  -1178,    839,  12540,  -3315,  -7846,   1597, -10441,  12382, -11435,   4623,   8149,  -3637,   1600,  -7298,   9171,  15011,   1120,  -9572,   -931,  -9025,   6722,   4842,  -8102,   4793,  -6094,  -3878,  -8560,  -3584, -12607,  -2313,   1787,   4994,   1844,   7077,   -932,  -8852,  -2273, -11044,   9047,    824,  -5840,   2044,  10714,   9625,   -355,   2787,  -8758,  11130,   5688,  -3209,   5749,  -3591,   5744,  -2868,    497,    188,   2408,  -5542,   9498,    913,  -7481,  -8136,  -4389,   2906,  -8244,  -3573,   3645,   1908,  -6998, -10280,  -9405,   9735,    659,  -5968,  -3439, -10607,  -2773,  -5036,   7168,    183,  -6038,  10115,  -4677,  -2358,  -4415,  15387,   6559,  -7919,   7645,  -2844,  -2697,   4919,   4020,   4450,   8682,  -6985,  -3394,  -2808,   5770,  -3792, -10604,   5092,   9235,  -2367,   5349,   9553,     -6,    750,  -2554,    760,   3691,   9648,  -6622,   -264,  11187,  10797,  -3712,   1983,   4496,  13959,   -236,  -9027,  -1615,   3026,  -4410,  -1034,   3168,   2638,   1326,   9383,  -7042,    244,  -9220,   -359,   1654,  -6317,  -3943, -10430,  -8404,   8162,  10221,  -2023,  -9853,   8386,  -8706,  -7859,   1115,  -3397,  -4790,   4133,  -3736,  -8262,   8427,   3725,  -8229,   1386,   -453,  12056,   2606,  13419,  11631,   8863,   8649,    360,   2911,  -2870,   4136,  16024,  -1063,   3309,   6419,   2080, -13106,   9633,   -760,  10145,  -6332,  -5967,   6934,   6855,  -9479,   5587,  -5126,  10978,   6534,    883,   4400,   4103,  -8912,   4528,    117,   4092,   6279,  -4216,   4669,   4376,   7754,  -7422,  10247,   5656, -12667,  -4376,   4181,   2495,  -4143,  -5104,  -8509,   9382,  -5377,   2807,   9082,   5833,   2656,   2615, -10070,   1805,  -7081,  -7537,   4915,  -1265,   5346,  -1735,   9593,  -2984,  11915, -15267,  11225,   5553,  -5883,   1004,   8706, -12208,  -1017,   -502,  -1327, -10212,  -4210,   1525, -11666,
          8201,  -1453,   9666,   -173,  -1493,  -1605,  -4991,  -5143,   2407, -10114,   8313,  16810,   6625,   -746,    293,   7812,  -5358,  -2939, -10361,  -8670,  -2219,  -5265, -10742,  -6392,   6821,   8250,  -6865, -10684,  -8006,    364,   7258,  -7490,   9594,  11997,  -2713,  -8802,  -9082,  -1345,  -8111,  -8834,  -1095,   9703,   8054,   1446,  -4820,  -4798, -11396,   3547,   4837,  -2519,   2168,   -177,    673,   4226,   4973,   6353,   4489,    643,   3171,   7999,  -2691,  -5778,  -8150,   1164,   9322,   -897,   6869,    696,  -8086,  -3860,    702,   2021,  14143,  -4825,   1567,  12168,  -9348,  12227,   6948,  -7975,  13420,  -2330,  14080,  -7664,   9539,   -534,  -4952,  -2907,  12700,  13529,   -150,  -6560,   7185,   6114, -10823,   5991,   6900,  -2024, -10997,  -2201,   4772,   4797,  -3885,  -6751, -10926,   4286, -11957,  10498,  -3198,   9831,  -5166,   9115,   -234,    977,  -9798,  -8832,  -2368,  -4177,   3596,   2933,   -247,   8167,  -3586,  10535,   9133,   5342,  -6136,   2010,   2570,   5466,  -2265,   7238, -12403,   6122,  -8711,    755,   8183,    738,  13186,  12319, -10004,  -1610,  -5692, -11181,   2237,   7990,  -4740,   2650,   9124,   4455,   4562,    253,    484,  -3865,  -2735,  -5780,   7390,  -7479,  -7940,  -3749,  -1665,   6725,    282,  -5805,  -9332,    718,  -6687,  -1482,   4243,  -7558,   9909,   4838, -11949,   3531,   -810,   5646,  13377,  12165,  -5962,  15476,   4517,   4360,  10255,   5635,   8690,  -3140,  -4367,    678,   8618,   8262,  -1702,   2525,   9738,   -499,   6199,  -8498,  -7759,    -45,   5075,  -6552,  21118,  12951,  -4515,   4424,  -1444,   3931,  -2286,   6495,   9129,   3118, -17784, -10681,  -1586,   2670,  -9408,  -4191, -10632,  -6791,   5458,   2670,  -3227,   4720,   9942,  10733,  -3448,  -6264,  -8562,   7017,  -7352,  -8215, -16387,  -1350,  -8410,    -26,   9043,   4224, -11085,   4959,    206,  -5893,   7408,   6885,    -96, -10653, -12365,   5999, -17114,   1842,  14892,   4541,   5222,  -3547,   3347,   1206,   2738,   4789,  -9429,   -721,  -4805,   9676,  11010,   3118,  -9423,   6090,   6444,   3248, -10629,   7319,    699,  -9613, -18666,  -2861,  13311,  -7171,   2018,  -5934,  -5765,   2295,  -2968,   7707,   6388,   7390,  -6563,  -2037,  -3322,   6698, -12497,  -4063,  -5417,   9507,   6595,   4604,  -9978,  -1610,  -5400,  -8205,  14430,  11129,  -9269,  10310,  -1706,  -9083,    181,    141,  -4080,   1193,  -2952,   8170,   3514,  -3517, -12354,   7341,   7732,  -5476,   4259,   7291,  -2423,   4253,  -9011,   4114,   6793,  10497,  -2819,  -2439,   7237,   -941,  -8846,    718,   7189,   2703,  12120,  -5160,   1274,   5649,   8006,  -4622,  10040,   5514,   5824,   5524,  -4710,  -9096,  -7620,  -6391,   5630,   6934,   9506,  -9082, -11868,  -5862,  -7373, -10161,  -6417,  -4742,  -9813,  -9653,  -3293,   1172,   6487, -10137,  17581,  12840,  15127,  -4817,  -6715,   6134,  -1907,  -6598,  13916,  -5362,  -7591,   5591,   6983, -16785,  -8148,  -8508,   3784,   9204,  -4962,  -4998,  -9116,  -2838,   4811,  -9581,  -3265,  -8081,  -7078,   1824,  -7620,  -8980,  -8808,   8243,  14100,  -4828,   6725,  -9661,  -9662,   5340,   7110,   -434,  -7822,  -8084,   9635, -13975,   7512,   2621,  -6991, -11300,   5611,   6803,   3398,   5705, -12075,  -4718, -14208,  -9958,  -2635,  -2662, -10023,  -2514,   4086,  -8077,  -3254,  -8469,  -8048,  -2570,  -3599,  12683,  -4024,   8369,  11626,  -6050,   9145,  -1502,  14300,   -828,   5191,  -2452,   9785,  -3977,  -5427,  -7742,   8226,  16546,   1121,   6689, -12205,   1997,   9156,  11057,  -1308, -11502,  -1832,  -1557,  -1997,   -179,   6913,   6731,  -2650,   5085,  -7591, -10256, -11090,  -3494,  -4175,  -5903, -15372,  -1536,  -4270,   1999,  -2198,  -3920,  11983,   7516,   3075,  -1171,   3857,  -8054,  -2733,  -7196,  10128, -12906,   2272,   2635,  -4120,  -5274, -15320,  -9650,   4810,    892,   1634,  -2350,  -5305,   9984,   5638,   9212, -11142,  -6467,  -3413,   9743,  -9668,   2944, -13727,   5736,  -5846,    905,   4832,   2867, -10465,   4933, -22976,  -7857,
         -1466,   4307,   9089,  -3722,   3879,  -5102,  -7649,   3863,  -8767,   2265,  -4359,  -8117,  -8624,  11899,  -9150,   9320,   6608,    932,   4251,  -3962,   4971,   3345,   3644,   9831,  15851,  11787,  -6347, -11208,   6500, -11145,   3072,  -2366,  -9153,  -2973,  -4911,  -1218,   4789,   3315, -11563,  -1691,  10726,   7541,   -485,   2748,   4996,   5017,  -9104,  -1442,  10697,  17096,   2522,   1716, -11203,  -3399,  -9827,  -4987,   2867,  -6969,   1186,  -5273,  -9568,   7627, -17385,  -7294,   4618,   7044,    521,  -7551,   7076,  -4952,  -9178,    344,  -8729,  -3712,   7367,   2265,  -9187,  -8850,  15325,   6692,   2947,  12764,  -2101,   4040,   4214, -11436,  -1506,   2115,   -843,  -3551,  -7010,  -5743,  -1953,  -2710,   6085,    574,    196,  13127,  -5249,  -2887, -10466, -18865,  -2968,   4546, -19894,  17636,   6268,   5680,  11631,   7775,   5083,  -7032,   3643,   4448,   4288,  -3936,  11549,  10798,   8041,  -3966,  -2689,   -686,   3858,  -6021, -12162,   8503, -13963,   9248,  -5891,  12248,    290,   4618,   -145,   1921, -14644,    -57,   7550,  -2551,  -3641,   1727,   6098,   4803, -15441,   3959,  -6006,  -3291,  -8873,   4381, -10244,   9401,  -4552,    -46, -13403,  -3084,   -265,  -9629,  -2145,   9348,   3012,  -7941,   2713,  10114,    186,   -913,  -4841,  -9496,   3215,  -4570,  -9155,    527,  -5226, -13111,   6648,   1182, -13096, -10229,   9798,   2959,    226,  10139,   4273,  -1591,  -9713,  -4308,  -2463,    193,  -3816,  -4173, -12266,   3721,  -3819,  -1603,   8111,   7223,  -8020,    186,   4645,   3615,  -1816,    544,   3100,  12736,  -7387,   6505,  -5417,  -2412, -10125,  -5889,  -4471,  -7374,   1080,    369,   7775,   7498,  -9572,   -494, -10352,  -4229,   4150,  -8809,  -2112,  -2374,   4617,  -8500,  -4088,   4545,    418, -10371,   5866,   1317,  -6676,  -9328,  -9350,   4200,   7967,  -6653,  -5706,  13955,   9295,   8786,   3515,   7865,  -4845,   1908,  -5327,  -5844,  -3275,   4628,    713,  -6238,   3170,  -7658,   5055,  -1489,    294,  -4711,   3553,   3165,  -5028,   4025,  -8878,   9667,     25,   7344,   7512,  10981,   7859,   4791,   4559,  -6138,    697,  -9503,   5975,  -2558,   6088, -15319,   7070,  -7938,  -8998,   8471,   3163,   1249,   2216,   -328,  -8135,  -6022, -12907,  -9275,   6462,  -1661,  10628, -10017,  -8221,   1690,  -1091,   6924,   3294,  -6651,   6111,  -4600,  -9871,   5944,  -1568,   3391,  -3052,   2716,  -1573,   5848,   3616,  -3332, -16618, -10868,   7849,  -3168,  -4215,  -5601,  -7454,   8572,  -5794,  -3173,  -8525,  11624,  -3377,   2630,   4456,  -6577, -13577,   8746, -12451,  -6183,  13994,   8035,   2268,   2956,  -6666,  -3530,   2410,   3981,   1710, -10846,   5031,  -6950, -15173,  -8951, -11101,  -7794,   5143,  -5353,  -6047,    477,  -1768,  -8315,  10294,  -3694,   5012,   2078,  -2511,  -2697,   9867,  -4520,  15729,  -3131,   9244,    973,  -1133,   3391,   8786,  -9256,  12139, -12144, -10278,  -4449,   8375, -10882,  -2512,  11217,    541,   2974,   3331,  -9224,    -81,   3281,  -4225, -11158,   2782,   1772,   6665,   5555, -11757,  -1291,  -8611,  -5080,   -335,  -6064,   9786,  -9410,   -115,   8629,   9233,   6136,  -8660,  -8291,   8745,   1263,  -9609,   6627, -14074,  -4478,  -1057,  11386,  -3566,   -167,  -1532,   3945,   2132,   -194,   1711,  -7473,   3954,  -6842,  -2463,   3413, -16569,  -3997,  -5616, -11051,  -1570,  -7876,  -8403,   8301,    908,  -8637,  -5356, -10791,  12789,  -2405,     84,  -1504,  10817,  -9556,    331,   5085,   1851,  -2419,  -1098,   2803,  -1118,   7737,   9124,  -4306,  -1269,  -7090,  -1006,   3571,  -6982,  -3873,   8345,   8213,  -4927,  -7647,  -9440,   2059,  -9890,    499,    144,   2734,  -5824,  -9478,  -7527,   3888,  -2263,  -6771, -10587,  10048, -10469,  -7932,  -5148,   2388,  -6955,  -8664,  -4413,   4600,    -41,  -1268,  -6126,   2648, -11250,   6189,   9845,   9319,  -9384,   6829,   8035, -10389, -12832, -10356,  -2261,   9139, -10658,  -2122,   5721,   2589,  -5453,   7995,  -2922,  -6158,  -3721,  -3106,   6766,  -4843,  -1053,   2707,
         -5235,   6831,   3816,   3682,   6561, -11340,  -8830,   8475,  -2384,   1748, -11959,   4600,   2083,    441,   5494,   4547,    512,  -7310,  10440,  -4552,   8414,  -1735,  -6937,  -6116,    -40,  -1013,  14808,  -2488,   1661,  -7025,   8880,    479,   -383,  -1199,   8931,   2780,    218,   1315,   8944,  -7832,   2347,   4492,   6656,   1829,   8923,  -3296,  10037,   9755,   -150,  -7414,  -9725,    664,   4052,  -6399,  -7499,  -3003,   8051,   -236,   -501,   1992,   5324,  -5513,   7470,    859,   9841,   8327,    178,  -6106,   2796,  -8338,   5300,  -1611,  -4461,   8584,   6218,  -7977,   8667,    745, -10792,   1188,  -1836,   9464,   3733,   5688,   8042,    220,  -3593,    846,   1458, -11252,    135,   5043,   6369,   3912,  -5043,   6399,  10555,   7027,   8081,  -7310,   -613,   9504, -10381,  -5933,  21193,   1974,  -1217,  -6599,   2499,   2201,  -6544,  -1897, -10481,   3953,  -6130,   8419,   7739,  -5994,   1912,  -3335,   6307,  -5729,   1217,   4217,   8047,  10030,   6358,   5596,    754,  -3751,  15490,   8582,   9321,  -1881,  -9374,  10640,  14795,   3796,   6233,  -5559,   3332,  -4805,   9543,  -9058,  -3165,  -4064,   6106,   9097,  -2774,  -2124,   9888,  -6868,  10579,  -3341,  -5033, -11061,   8222,   4451,  -7184,   4061,  -6946,  -7187,  -2760,   7203,  -9853,  -2804,  -5165,  -9141, -10021,    982,  -1108,   6701,  -7249,   1599,    301,  -4680, -10891,   4765, -12193,  -9033,   1323,  -1806,  -6378,   -865,   9996,   -742,  -3538,   2915,   6944,  -8747,  -3046,   2862, -11596,  -5238,   4829,  -9139,   6764,   8636,  -9331,  10395, -10181,  -4500,   1250,  -1050,  -1004,   4007,  -4616,  -7866,  -5834,   7910,  -1202,  -9361,   4730,   6756,   7028,  -3635,   4263,   1280,  -2745,   6175,   2035,  10141,   6956,  -2800,  -2978,   2919,   5162,   5678,   3139,  -4236,  -5475,   2502,  -1212,   8452,  -6186,   5273,  -3234,  -5223,  -2349,   6440,  -8318, -11382,  -4284,  -5136, -10257,  -7344,  -3470,   6404,  -4697,  -6515,  -4954,   7742,  -4113,  -1308,   6201, -10881,   4652,  -4858,  -1505,  -9857, -10448,   6537,  -1913,   7431,  -8169,   2445,  17621,  -3669,  -4917,   8723,  -1609,  10055,   2649,  -8135,  13863, -10914,   4712,  -6129,    436,  -5485,  -7688,     92,   7786,   4614,  -6487, -12538,   8048,   7288,  -5047,   1436,   2481,   3624,   6325,   5166,   -636,  -2343,   -615,  -2090,  -1483,  -3892,  -4329,   8804,   6332,  10914,  -1842,   4784,   8030,  -1582,  -2102,  -5576,   2201,   6602,   2922,   2208,   2467,  -3145,   9277,  -7034,  -5555,   -545,   8626,  -5152,   7220,   1084,   1650,   9763,  -4318,   2413,  -3407,   2890,    354,   1159,  -9352,  -3636,   7047,  -1266,   2838,   9243,   3666,   -828,  -3276,    306,   1188,   1801,  -8345,   -472,  10757,  -4437,    -83,   1793,   7543,   5226,   7888,   2749,  -1854,   2262,  10175,  -9104,   9791, -13236,   5213, -10109,   4018,   5660,   9272,   2507,   4836,   6306,   5603,  -3017,  -9831,   4546, -10414,   3349, -11064,   2944,  -4451,   6854,   3027, -11076,   8800,   3694,   1600,   8387,  -1079,  -6937,  18653,   7464,   4555,   6767,  -9745,   2585,  -6637,  -7753,   5690,   6072,  -4146,   3585,  -2994,   2136,   7139,  -9334,  12963,   -162,   6526,  -9278,  -3438,   7096,  -1626,   7706,   5289, -12937,  -5661,   2339,   9373,  -8469,  -9770,  -7799,  16164,  -5383,  -2361,  -8609,   2218,   6846,   -128,   6811,  -3300,  -2777,  -2377,  -8011,   6644,   3487,   -935,  -9343,   9058,  -6581, -11485,  -9483,  -5498,   3447,  -2172,  -5412,   3397,  -4201,   -694, -10426, -11580,   7584,  -4533,  -1438,  -4256,  10796,   5212,  -7976,   5939,   4723,   5768,  -4625,  -9356,  -2374,  -6169,   2638,   9406,   5573,  15012,   1412,  -4403,   1261,  -6818,  -7443,    768,   3559,  10034,  -8264,   3354, -10955,  -9315,   6804,  -8991,  -2898,   9404,   5598,  -8511,   7391, -11655,  -3156,  -2657,  17082, -12900,  -8029,  11516, -11923,   4626,  -7590,  -3702,   8321,  10365,   8636,  -7114,  -8514,   4279,  -5135,   1067,   9270,  10891,  -3510,  -7485,  -2076,  -6182,   7448,  -1517,  -3096,
          9226,   4238,   2913,   1629, -11377,   -542,   2904,  -7732,  -3382,  -1921,   9303,  -1749,  -1059,   9391, -10828,  -8507,  -2929, -11453,     80,   5570,   8538,   2886,  -7630,   1012, -13482,   -102,   9964,   8114,   6040,  -4046,   7252,  -5110,   6972,   9217,   5856, -10806,  -6853,   -230,  -3483,   6409,   6236,   7692,   4703,  -6717,   -906,   7363,  -9368,   1439,  15467,  11741,  -4479,    217,   8782,   7323,  -3739,  -7615,  -1546,   2634,  -4150,   6806,  -5955,   7683,  -7476,   9472,  -3327,   1090,  15032,   9999,   8282,    704,   4309,   6051,  -6025,  -1864,  12996,   1859,   3847,   1456,  -8565,  -1322, -10628,  -4805,  -2343,   7162,   5847,  -3717,   8139,  -3333,    436,  -4314,  -1525,   2317,   6551,   8147,  -6081,  -6339,   4725,   2319,  -9393, -12548,  -2553,  -3515,  -8566,  13363,  -3830,   4841,   6867,  -8863,   6327,  -8930,   3669,  -1251,   6903,   7791,   9429,   8988,   9676,  -5617,  -7407,   2767,   2597,   6138,  15360,  -7335,  -5380,   7139,   7518,   4649,   3647,   5516,  14581,  -6852, -10414,   9866,  -3774,   5876,   2803,  -9803,    963,   5234,  -6296,  11885,   1522,  -3241,   7973,   3985,  -1780,   3147,  11293,   5843,    -40,   8237,   1153,   -556,  -3102,  -2311, -10841,  -7422,  -1816,   8237,   3233,   6780,   9366,  -4814,  -4504,  -8127,  -5139, -11392,   -858,  -5080,  12130,   7161,  -8318,  -6828,   9376,   8328,   6208, -10086,  -7602,  -6841,  -6035,  -6034,  -2404,  -8683,  -4192,   2083,   4142,   7258,  -1908,  -6600,  -1763,  -3131,  -8606,  -6032,   4461,  -4971,  -6227,  -9846,  -7059,   -714,   5026,   2225,  14988,  -9154,     51,  -3371,   -700,  -3215,   6006,  -2212,  20176,   2459,   7989,  -4781,   5384,  10351,   2084,   3210,  -7640,   2263,  -5860,   9092,  -3281,  -6542,   6296,  -5397,   2402,   3098,   2961,   5394,   7642,  -3627,  -6055,   -925,  10302,  -6634,  -5317,   4805,  -3175,  -4365,  -5742,    926,   3223,   3332,    105,   4755,   -708,   5431,  -5617,   8803,   1529,   2560,   1993,  -7940,   8866,   5871,  11354,  -3896,  -3389,  -3572,  -9921,  -2799,  -9633,   2944,  -3135,   -959,   5578,    -35,   8229,   3690,   1715,    886, -10759,   6271,  -6748,   1624,  -8178,    648,   -747,   9506, -10380,    732,  14910,   8258,  -2478,  -8232,  -4703,   1247,   2899, -11798,   6750,    -14,   4526,    893,   4146,   4247,   7217,  -7914,   4959,  -4896,  -5813,   5930,   8037,   6991,   2920,   6765,  -4287,   8744,   6545,   6584,   1093,   5942,  -4662,  -1360,   5405,   5835,   9087,   7912,  -7603,  -8055, -10695,   6457,   1346,  -7451,  -8553,  -9227,   7309,   3948,   3420,  -8387,  -1482,    769,   -787, -11529,   6348,   1042,  -7808,  -2208,  11030,   -426, -10863,  -9228,   3804,  -3158, -13280,  -4103,  13355,  -9168,  -5200,  -2881,   4789,   4430,  -8670,   2032,    395,  -3377,   4833,  -8866,   9158,  11033,  -8734,    185,  13769,  -7125,    135,  -9484,   7599,  -5179,   8268,  -5026,  -2339, -10968,  10162,  -4395,   8134,   3683, -10175,   1156,    704,   4854,  -6122,  -7194,   3829,   6426,   9018, -12592,  -7837,  -8403,   1268,  -1477,  -5507,   -895,   2872,   -401,   8838,  -2685,  -1602,   5043,  -1453,  -7116,  -8862, -10995,   8714,  -7827,  -1520,   9796,   5304,  -9271,  -1399,  -1867,   4296,  -8937,    768,   8096,  -4373,  -6790,  -3053,  -3815,  -1141,   4499, -11197, -11635,   -574,  -8015,   2198,  10474,  -2798,    814,   7322,   4505,  -9612,  -4815,  -6575,    402,   8155,   3916,   1148,   1418,   5521,   8061,  -3450,  -7170,  -1813,  -1262,   8681,   7330,   4219,  -5787, -12333,  -8309,  -9564,   3280,    743,  -6174,   1223,  -4830, -11832,   5669,   -305,  -1548,  -1509,   2502,   5700,   3159,   3957,  -2728,  14692, -12539,  -9182,   2998,  -4214,  -4257,  -2199,  -5269,  12382,  -9733,   4536,  -5393,      6,     32,  -6585,  -3826,  11837,   1570,  -7745,  14407,   5812,   2285, -14660,   1917,   8731,   7090,  -8565,  -6761,  -1398,   2094,   2556,    748,  18312,    109,  -8739, -10022,  -5056,   5975,  -5771,   6095,   9975,  -9090,  -8859,  -2490,  -1855,  12300,
